{"learner":{"attributes":{"scikit_learn":"{\"_estimator_type\": \"regressor\"}"},"feature_names":["temperature_2m_mean","precipitation_sum","wind_speed_10m_max","wind_direction_10m_dominant"],"feature_types":["float","float","float","float"],"gradient_booster":{"model":{"gbtree_model_param":{"num_parallel_tree":"1","num_trees":"100"},"iteration_indptr":[0,1,2,3,4,5,6,7,8,9,10,11,12,13,14,15,16,17,18,19,20,21,22,23,24,25,26,27,28,29,30,31,32,33,34,35,36,37,38,39,40,41,42,43,44,45,46,47,48,49,50,51,52,53,54,55,56,57,58,59,60,61,62,63,64,65,66,67,68,69,70,71,72,73,74,75,76,77,78,79,80,81,82,83,84,85,86,87,88,89,90,91,92,93,94,95,96,97,98,99,100],"tree_info":[0,0,0,0,0,0,0,0,0,0,0,0,0,0,0,0,0,0,0,0,0,0,0,0,0,0,0,0,0,0,0,0,0,0,0,0,0,0,0,0,0,0,0,0,0,0,0,0,0,0,0,0,0,0,0,0,0,0,0,0,0,0,0,0,0,0,0,0,0,0,0,0,0,0,0,0,0,0,0,0,0,0,0,0,0,0,0,0,0,0,0,0,0,0,0,0,0,0,0,0],"trees":[{"base_weights":[1.8354558E-6,6.9564238E0,-6.95642E0,2.1581354E1,2.6498077E0,9.112626E0,-7.9461203E0,3.9648476E0,2.6507145E1,5.2054453E0,-7.2260685E0,1.6588697E1,6.858618E0,-2.1480095E0,-1.0264402E1,1.3133597E1,-8.65814E0,2.8183855E1,-3.9876266E0,1.2753138E1,3.0771642E0,8.963685E-1,-9.230034E0,1.2491847E1,-2.5672312E0,-4.01316E0,8.650043E0,-1.0670196E1,7.913302E0,-4.233535E0,1.5914016E1,-2.6265383E0,-1.572096E1,3.4393723E1,2.2135607E1,-5.752996E0,3.1091316E0,2.1718334E1,7.1202965E0,-1.3099144E0,5.11132E0,1.4106286E1,-9.2535585E-1,-1.151255E0,-1.0466111E1,9.671879E0,1.0031885E1,1.0868927E1,-7.301559E0,5.4934487E0,-6.78428E0,2.5181836E2,-3.8610594E0,-6.2572365E0,-1.1856183E1,9.9457145E-1,2.07616E1,-2.22539E0,7.4550855E-1,-3.9544914E0,5.3529043E0,3.7337145E-1,-5.236303E0,-2.5853899E0,-5.256125E0,9.416872E0,1.1934891E1,6.0236735E0,1.5528481E1,3.7848002E-1,-3.8843462E0,4.8637156E0,8.789568E0,-1.9136876E0,3.6212602E0,-8.264733E-1,4.5330915E0,2.759922E0,6.746201E-1,-3.0408688E0,6.2946105E0,-8.4117985E-1,3.431886E0,-1.3962882E0,8.937812E-1,-1.3719491E0,-3.6421819E0,5.0318966E0,5.8341827E-2,-2.7053897E0,8.574611E0,4.4422534E-1,-3.0458562E0,3.4723933E0,-5.660145E-1,-1.7754605E0,-4.918931E0,1.13809135E2,-4.908686E-1,4.545509E0,-1.438198E0,-5.425038E-1,-2.5882964E0,-1.9001361E0,-3.8649478E0,-1.3015792E0,3.181886E0,-3.408686E-1,7.215654E0],"categories":[],"categories_nodes":[],"categories_segments":[],"categories_sizes":[],"default_left":[0,0,0,0,0,0,0,0,0,0,0,0,0,0,0,0,0,0,0,0,0,0,0,0,0,0,0,0,0,0,0,0,0,0,0,0,0,0,0,0,0,0,0,0,0,0,0,0,0,0,0,0,0,0,0,0,0,0,0,0,0,0,0,0,0,0,0,0,0,0,0,0,0,0,0,0,0,0,0,0,0,0,0,0,0,0,0,0,0,0,0,0,0,0,0,0,0,0,0,0,0,0,0,0,0,0,0,0,0],"id":0,"left_children":[1,3,5,7,9,11,13,15,17,19,21,-1,23,25,27,29,31,33,35,37,39,41,43,45,47,49,51,53,55,57,59,61,63,65,67,69,-1,71,73,75,77,79,81,83,85,87,-1,89,91,93,95,97,99,101,103,105,107,-1,-1,-1,-1,-1,-1,-1,-1,-1,-1,-1,-1,-1,-1,-1,-1,-1,-1,-1,-1,-1,-1,-1,-1,-1,-1,-1,-1,-1,-1,-1,-1,-1,-1,-1,-1,-1,-1,-1,-1,-1,-1,-1,-1,-1,-1,-1,-1,-1,-1,-1,-1],"loss_changes":[1.476918E5,9.605633E4,2.434121E4,3.0005922E4,2.9819824E4,8.885377E3,1.9307047E4,9.025463E3,1.3968844E4,1.5028418E4,3.9636055E3,0E0,4.598495E3,8.332393E3,7.659992E3,2.2403276E3,1.3645122E3,8.891297E3,4.3965546E2,1.0248258E4,6.5479893E3,1.1922299E3,1.9352207E3,2.8664668E3,2.1785286E3,9.310338E3,1.865528E5,5.185703E3,2.023911E3,1.6819745E2,2.4240947E3,1.1123243E3,4.0732666E1,7.749844E2,7.064586E3,7.2289795E2,0E0,2.8221719E3,8.631113E3,5.5700557E3,5.842743E3,1.2127916E3,1.0541322E3,4.0453986E2,1.6121211E3,3.2944429E3,0E0,3.4280796E3,6.4105786E2,3.6122551E3,2.1756553E3,9.760164E4,1.1191577E3,2.2517295E3,4.404461E3,8.661907E2,6.03781E2,0E0,0E0,0E0,0E0,0E0,0E0,0E0,0E0,0E0,0E0,0E0,0E0,0E0,0E0,0E0,0E0,0E0,0E0,0E0,0E0,0E0,0E0,0E0,0E0,0E0,0E0,0E0,0E0,0E0,0E0,0E0,0E0,0E0,0E0,0E0,0E0,0E0,0E0,0E0,0E0,0E0,0E0,0E0,0E0,0E0,0E0,0E0,0E0,0E0,0E0,0E0,0E0],"parents":[2147483647,0,0,1,1,2,2,3,3,4,4,5,5,6,6,7,7,8,8,9,9,10,10,12,12,13,13,14,14,15,15,16,16,17,17,18,18,19,19,20,20,21,21,22,22,23,23,24,24,25,25,26,26,27,27,28,28,29,29,30,30,31,31,32,32,33,33,34,34,35,35,37,37,38,38,39,39,40,40,41,41,42,42,43,43,44,44,45,45,47,47,48,48,49,49,50,50,51,51,52,52,53,53,54,54,55,55,56,56],"right_children":[2,4,6,8,10,12,14,16,18,20,22,-1,24,26,28,30,32,34,36,38,40,42,44,46,48,50,52,54,56,58,60,62,64,66,68,70,-1,72,74,76,78,80,82,84,86,88,-1,90,92,94,96,98,100,102,104,106,108,-1,-1,-1,-1,-1,-1,-1,-1,-1,-1,-1,-1,-1,-1,-1,-1,-1,-1,-1,-1,-1,-1,-1,-1,-1,-1,-1,-1,-1,-1,-1,-1,-1,-1,-1,-1,-1,-1,-1,-1,-1,-1,-1,-1,-1,-1,-1,-1,-1,-1,-1,-1],"split_conditions":[2.1278847E2,4.7571673E0,1.2074766E1,6.0694004E1,2.495452E1,-5.5950004E-1,3E-1,1.8861387E1,7.2999997E0,8.372E0,1.3460849E2,1.6588697E1,2.9393533E2,2.5460936E1,1.9494669E1,1.3997643E1,2.813667E0,1.8014393E1,4.4990835E0,1.5844089E1,6.271331E1,4.763556E0,4E-1,1.9611582E1,4.8821664E0,2.3675897E2,2.5630886E1,1.9373219E1,2.0669668E1,1.6981165E1,-2.2865837E0,2.706472E1,1.1814947E1,1.477755E1,2.0785892E2,2.3178337E0,3.1091316E0,7.155083E0,5.949607E1,2.8000002E0,1.3830083E1,7.678001E0,1.0239759E2,2.8696312E1,7.373833E0,1.03655E1,1.0031885E1,3.0113335E0,3.0712143E2,1.9995398E1,2.3565567E1,1.3730083E1,2.6124195E1,2.5087648E2,2.2512596E2,2.7288855E1,2.170354E2,-2.22539E0,7.4550855E-1,-3.9544914E0,5.3529043E0,3.7337145E-1,-5.236303E0,-2.5853899E0,-5.256125E0,9.416872E0,1.1934891E1,6.0236735E0,1.5528481E1,3.7848002E-1,-3.8843462E0,4.8637156E0,8.789568E0,-1.9136876E0,3.6212602E0,-8.264733E-1,4.5330915E0,2.759922E0,6.746201E-1,-3.0408688E0,6.2946105E0,-8.4117985E-1,3.431886E0,-1.3962882E0,8.937812E-1,-1.3719491E0,-3.6421819E0,5.0318966E0,5.8341827E-2,-2.7053897E0,8.574611E0,4.4422534E-1,-3.0458562E0,3.4723933E0,-5.660145E-1,-1.7754605E0,-4.918931E0,1.13809135E2,-4.908686E-1,4.545509E0,-1.438198E0,-5.425038E-1,-2.5882964E0,-1.9001361E0,-3.8649478E0,-1.3015792E0,3.181886E0,-3.408686E-1,7.215654E0],"split_indices":[3,0,2,3,2,0,1,2,1,0,3,0,3,2,0,3,0,2,0,2,3,3,1,0,0,3,2,2,0,2,0,2,3,2,3,0,0,0,3,1,0,0,3,2,0,0,0,0,3,2,2,0,2,3,3,2,3,0,0,0,0,0,0,0,0,0,0,0,0,0,0,0,0,0,0,0,0,0,0,0,0,0,0,0,0,0,0,0,0,0,0,0,0,0,0,0,0,0,0,0,0,0,0,0,0,0,0,0,0],"split_type":[0,0,0,0,0,0,0,0,0,0,0,0,0,0,0,0,0,0,0,0,0,0,0,0,0,0,0,0,0,0,0,0,0,0,0,0,0,0,0,0,0,0,0,0,0,0,0,0,0,0,0,0,0,0,0,0,0,0,0,0,0,0,0,0,0,0,0,0,0,0,0,0,0,0,0,0,0,0,0,0,0,0,0,0,0,0,0,0,0,0,0,0,0,0,0,0,0,0,0,0,0,0,0,0,0,0,0,0,0],"sum_hessian":[3.05E3,1.525E3,1.525E3,3.46E2,1.179E3,8.8E1,1.437E3,7.6E1,2.7E2,9.37E2,2.42E2,3E0,8.5E1,4.11E2,1.026E3,4.4E1,3.2E1,2.56E2,1.4E1,2.05E2,7.32E2,4.8E1,1.94E2,5.3E1,3.2E1,3.51E2,6E1,1.004E3,2.2E1,6E0,3.8E1,1.8E1,1.4E1,1.24E2,1.32E2,1.3E1,1E0,7.8E1,1.27E2,2.32E2,5E2,5E0,4.3E1,2.6E1,1.68E2,4.8E1,5E0,8E0,2.4E1,7.9E1,2.72E2,2E0,5.8E1,2.14E2,7.9E2,1.5E1,7E0,4E0,2E0,2E0,3.6E1,1.5E1,3E0,4E0,1E1,8.4E1,4E1,1.25E2,7E0,7E0,6E0,4.7E1,3.1E1,3.4E1,9.3E1,2.14E2,1.8E1,2.05E2,2.95E2,1E0,4E0,3.8E1,5E0,1.4E1,1.2E1,3.8E1,1.3E2,2.7E1,2.1E1,4E0,4E0,6E0,1.8E1,4.3E1,3.6E1,2.51E2,2.1E1,1E0,1E0,2E0,5.6E1,7.5E1,1.39E2,1.25E2,6.65E2,1E1,5E0,1E0,6E0],"tree_param":{"num_deleted":"0","num_feature":"4","num_nodes":"109","size_leaf_vector":"1"}},{"base_weights":[6.556179E-2,6.377768E0,-3.6612725E0,1.6279716E1,3.8376484E0,7.7654564E-1,-6.44733E0,3.405855E0,2.0879126E1,6.545105E0,-9.2860925E-1,4.38921E0,-5.1192074E0,3.2410355E1,-6.7070694E0,1.1003954E1,-5.619704E0,2.332938E1,5.001358E0,1.0511434E0,9.765939E0,-1.3519958E-2,-7.709309E0,3.1065896E0,1.0092308E2,-6.6028132E0,6.275357E0,3.8527195E1,-1.5611264E0,-9.7223645E-1,-7.6457734E0,1.6651707E1,1.7463275E0,-2.9929285E0,-4.557057E0,4.620304E1,2.1502815E1,-3.7865176E0,9.631953E0,-2.597662E-1,1.7289885E1,1.6083567E1,4.8182864E0,-3.292044E0,2.1910825E0,-1.2557401E1,-2.9558299E0,1.0348058E1,-1.8483115E0,-2.3627942E0,9.673776E1,-3.808528E0,-9.797862E0,7.174858E0,4.3657484E0,4.3664413E1,1.1555804E0,-2.6477954E0,1.6071577E1,-6.028138E0,-9.683388E0,3.0583192E-2,7.475792E0,-1.218418E0,5.1842937E0,-1.3067539E0,4.253126E0,1.6956308E1,7.374256E0,3.0858269E0,7.841359E0,-3.1417732E0,2.1567602E0,6.2759676E0,7.797792E-1,-2.877563E-1,2.5151246E0,2.564144E0,8.192859E0,8.194221E0,3.9780254E0,1.4193525E1,1.2499707E0,-1.4530491E0,1.8357185E0,1.8216867E0,-2.2252001E-1,-4.1765513E0,-1.1880927E0,9.5277995E-2,-4.048291E0,5.669889E0,1.7651563E0,1.6494079E0,-8.883323E-1,1.5754339E-1,-2.153921E0,-3.4626296E0,-1.5755109E0,-1.9823246E0,1.6051185E0,3.1708272E0,1.4450859E1,6.7092806E-1,-1.3599035E0,5.2406096E0,-5.232165E-1,-8.918348E-1,-2.275412E0,-3.0566936E0,-1.3395875E0],"categories":[],"categories_nodes":[],"categories_segments":[],"categories_sizes":[],"default_left":[0,0,0,0,0,0,0,0,0,0,0,0,0,0,0,0,0,0,0,0,0,0,0,0,0,0,0,0,0,0,0,0,0,0,0,0,0,0,0,0,0,0,0,0,0,0,0,0,0,0,0,0,0,0,0,0,0,0,0,0,0,0,0,0,0,0,0,0,0,0,0,0,0,0,0,0,0,0,0,0,0,0,0,0,0,0,0,0,0,0,0,0,0,0,0,0,0,0,0,0,0,0,0,0,0,0,0,0,0,0,0],"id":1,"left_children":[1,3,5,7,9,11,13,15,17,19,21,23,25,27,29,31,33,35,37,39,41,43,45,47,49,51,53,55,-1,57,59,61,63,65,-1,67,69,71,73,75,77,79,81,83,85,87,89,91,93,-1,-1,95,97,-1,99,101,-1,103,105,107,109,-1,-1,-1,-1,-1,-1,-1,-1,-1,-1,-1,-1,-1,-1,-1,-1,-1,-1,-1,-1,-1,-1,-1,-1,-1,-1,-1,-1,-1,-1,-1,-1,-1,-1,-1,-1,-1,-1,-1,-1,-1,-1,-1,-1,-1,-1,-1,-1,-1,-1],"loss_changes":[7.179674E4,2.843489E4,2.3731555E4,1.3606898E4,1.1658782E4,1.580531E4,1.2116859E4,4.313618E3,6.4971016E3,1.0182135E4,2.0351179E3,5.6641996E4,4.8086562E3,2.0411221E3,6.3018086E3,1.748604E3,6.8358264E2,5.1481953E3,1.01310583E3,4.560021E3,1.1268949E4,2.103287E3,8.616494E2,1.6344872E4,1.4715722E5,2.1946543E3,1.0072617E3,1.078749E3,0E0,4.783168E3,3.2608164E3,2.8708223E3,1.3332777E3,6.2338464E2,0E0,8.416406E2,6.9057734E3,7.3574817E2,1.2157764E3,1.2110878E3,1.1681675E3,4.6795664E3,5.4800884E3,1.7379415E3,1.9851222E3,1.6773853E2,7.2872015E2,6.9513516E3,2.2316982E3,0E0,0E0,1.9760817E3,8.5921387E2,0E0,3.703095E2,3.8545605E2,0E0,1.4097256E3,4.0382495E2,2.6597617E3,1.1258711E3,0E0,0E0,0E0,0E0,0E0,0E0,0E0,0E0,0E0,0E0,0E0,0E0,0E0,0E0,0E0,0E0,0E0,0E0,0E0,0E0,0E0,0E0,0E0,0E0,0E0,0E0,0E0,0E0,0E0,0E0,0E0,0E0,0E0,0E0,0E0,0E0,0E0,0E0,0E0,0E0,0E0,0E0,0E0,0E0,0E0,0E0,0E0,0E0,0E0,0E0],"parents":[2147483647,0,0,1,1,2,2,3,3,4,4,5,5,6,6,7,7,8,8,9,9,10,10,11,11,12,12,13,13,14,14,15,15,16,16,17,17,18,18,19,19,20,20,21,21,22,22,23,23,24,24,25,25,26,26,27,27,29,29,30,30,31,31,32,32,33,33,35,35,36,36,37,37,38,38,39,39,40,40,41,41,42,42,43,43,44,44,45,45,46,46,47,47,48,48,51,51,52,52,54,54,55,55,57,57,58,58,59,59,60,60],"right_children":[2,4,6,8,10,12,14,16,18,20,22,24,26,28,30,32,34,36,38,40,42,44,46,48,50,52,54,56,-1,58,60,62,64,66,-1,68,70,72,74,76,78,80,82,84,86,88,90,92,94,-1,-1,96,98,-1,100,102,-1,104,106,108,110,-1,-1,-1,-1,-1,-1,-1,-1,-1,-1,-1,-1,-1,-1,-1,-1,-1,-1,-1,-1,-1,-1,-1,-1,-1,-1,-1,-1,-1,-1,-1,-1,-1,-1,-1,-1,-1,-1,-1,-1,-1,-1,-1,-1,-1,-1,-1,-1,-1,-1],"split_conditions":[1.8436714E2,4.000917E0,6E-1,6.0694004E1,1.9559633E1,1.3730083E1,1.4032501E0,1.8861387E1,2.495452E1,6.271331E1,1.7540417E2,1.3663418E1,1.9611582E1,2.3565567E1,1.7731598E1,1.6488333E0,2.706472E1,6.338111E1,8.143477E1,2.8000002E0,1.1644668E1,6.271331E1,1.8031342E2,2.3357207E2,2.5323128E1,2.6493207E2,9.6932955E0,2.1E0,-1.5611264E0,1.88655E1,2.4421048E2,-5.5950004E-1,1.784816E1,1.3E0,-4.557057E0,1.4032501E0,8.6820244E1,-1.1636667E0,8.891675E1,1.9611582E1,1.3197E1,1.0990322E1,6.338111E1,1.7082417E1,9.588416E0,1.12490835E1,1.264675E1,1.6323528E1,1.2074766E1,-2.3627942E0,9.673776E1,1.8388212E1,1.7386583E1,7.174858E0,1.8869394E2,-9.3866664E-1,1.1555804E0,2.2294234E2,9.7E0,8.850917E0,3.3355902E2,3.0583192E-2,7.475792E0,-1.218418E0,5.1842937E0,-1.3067539E0,4.253126E0,1.6956308E1,7.374256E0,3.0858269E0,7.841359E0,-3.1417732E0,2.1567602E0,6.2759676E0,7.797792E-1,-2.877563E-1,2.5151246E0,2.564144E0,8.192859E0,8.194221E0,3.9780254E0,1.4193525E1,1.2499707E0,-1.4530491E0,1.8357185E0,1.8216867E0,-2.2252001E-1,-4.1765513E0,-1.1880927E0,9.5277995E-2,-4.048291E0,5.669889E0,1.7651563E0,1.6494079E0,-8.883323E-1,1.5754339E-1,-2.153921E0,-3.4626296E0,-1.5755109E0,-1.9823246E0,1.6051185E0,3.1708272E0,1.4450859E1,6.7092806E-1,-1.3599035E0,5.2406096E0,-5.232165E-1,-8.918348E-1,-2.275412E0,-3.0566936E0,-1.3395875E0],"split_indices":[3,0,1,3,2,0,0,2,2,3,3,0,0,2,2,0,2,3,3,1,0,3,3,3,2,3,2,1,0,0,3,0,2,1,0,0,3,0,3,0,0,2,3,0,0,0,0,2,2,0,0,2,0,0,3,0,0,3,1,0,3,0,0,0,0,0,0,0,0,0,0,0,0,0,0,0,0,0,0,0,0,0,0,0,0,0,0,0,0,0,0,0,0,0,0,0,0,0,0,0,0,0,0,0,0,0,0,0,0,0,0],"split_type":[0,0,0,0,0,0,0,0,0,0,0,0,0,0,0,0,0,0,0,0,0,0,0,0,0,0,0,0,0,0,0,0,0,0,0,0,0,0,0,0,0,0,0,0,0,0,0,0,0,0,0,0,0,0,0,0,0,0,0,0,0,0,0,0,0,0,0,0,0,0,0,0,0,0,0,0,0,0,0,0,0,0,0,0,0,0,0,0,0,0,0,0,0,0,0,0,0,0,0,0,0,0,0,0,0,0,0,0,0,0,0],"sum_hessian":[3.05E3,1.132E3,1.918E3,2.3E2,9.02E2,7.4E2,1.178E3,6.1E1,1.69E2,5.75E2,3.27E2,4.59E2,2.81E2,7E0,1.171E3,3.3E1,2.8E1,1.46E2,2.3E1,2.13E2,3.62E2,2.89E2,3.8E1,4.54E2,5E0,2.49E2,3.2E1,6E0,1E0,1.65E2,1.006E3,2E1,1.3E1,2.3E1,5E0,9E0,1.37E2,8E0,1.5E1,1.98E2,1.5E1,1.58E2,2.04E2,1.16E2,1.73E2,1.8E1,2E1,1.84E2,2.7E2,4E0,1E0,1.34E2,1.15E2,2E0,3E1,5E0,1E0,1.51E2,1.4E1,5.63E2,4.43E2,7E0,1.3E1,1E1,3E0,2.2E1,1E0,5E0,4E0,4.1E1,9.6E1,5E0,3E0,5E0,1E1,1.84E2,1.4E1,9E0,6E0,3E1,1.28E2,2E0,2.02E2,1E2,1.6E1,7.4E1,9.9E1,1.5E1,3E0,1.6E1,4E0,6.2E1,1.22E2,3.5E1,2.35E2,5.9E1,7.5E1,8.2E1,3.3E1,2E0,2.8E1,1E0,4E0,4.2E1,1.09E2,1.3E1,1E0,1.91E2,3.72E2,4.03E2,4E1],"tree_param":{"num_deleted":"0","num_feature":"4","num_nodes":"111","size_leaf_vector":"1"}},{"base_weights":[1.1159998E-1,4.5389786E0,-2.502434E0,1.2803829E1,2.891694E0,1.7387929E0,-4.096801E0,-2.248348E0,1.5020296E1,-3.9090118E-1,4.7425303E0,4.901293E0,-3.5088778E0,6.697567E0,-4.478131E0,8.6132526E-1,-3.6717606E0,1.8057608E1,6.053497E0,-1.0662252E0,1.0535127E1,5.94321E0,-3.6930325E0,3.276787E0,7.8928375E1,-4.5810037E0,8.972868E0,1.4273423E1,3.8858476E0,-2.2271078E0,-5.6301966E0,-2.487899E0,1.4880198E1,-2.2085805E0,1.9124899E1,-5.297946E0,1.5260803E1,2.9197881E0,-2.368745E0,1.5721792E0,9.355993E0,1.1211586E1,3.735717E0,-1.0476371E0,-6.60326E0,8.944978E0,-9.157876E-1,7.196639E-1,8.2227104E1,-1.3512554E0,-5.687231E0,1.7438927E1,4.6976047E0,1.600747E1,-3.7719126E0,-2.750455E0,1.3412438E1,-1.7810079E0,-6.451098E0,2.0743554E0,-2.0945349E0,-1.7218649E0,7.0999894E0,3.2938623E0,-2.9039211E0,2.579718E0,6.2911415E0,-3.8583465E0,6.177989E-1,6.1656404E0,1.7393179E0,2.3180761E0,-1.1433723E0,-2.7099667E0,-4.902848E-1,-4.56625E0,2.1116505E0,4.059687E0,1.0145874E0,8.6956525E-1,5.1110044E0,-9.7413725E-1,1.1818495E0,-3.0367079E0,-8.76551E-1,3.8259408E0,2.6280212E-1,1.6150197E-1,-1.7742556E0,-1.8716205E0,5.326749E0,-9.6757996E-1,6.020755E0,-1.1295302E0,-3.0618649E0,3.775948E-1,8.341868E0,2.2559202E0,-8.47976E-1,-3.3091931E0,5.474043E0,-1.8217999E0,9.097378E0,-3.521016E-2,-1.4051011E0,3.4529573E-1,4.914566E0,2.8254254E0,-8.805636E-1,-1.5967456E0,-2.4036863E0],"categories":[],"categories_nodes":[],"categories_segments":[],"categories_sizes":[],"default_left":[0,0,0,0,0,0,0,0,0,0,0,0,0,0,0,0,0,0,0,0,0,0,0,0,0,0,0,0,0,0,0,0,0,0,0,0,0,0,0,0,0,0,0,0,0,0,0,0,0,0,0,0,0,0,0,0,0,0,0,0,0,0,0,0,0,0,0,0,0,0,0,0,0,0,0,0,0,0,0,0,0,0,0,0,0,0,0,0,0,0,0,0,0,0,0,0,0,0,0,0,0,0,0,0,0,0,0,0,0,0,0],"id":2,"left_children":[1,3,5,7,9,11,13,15,17,19,21,23,25,27,29,31,-1,33,35,37,39,41,43,45,47,49,51,-1,53,55,57,59,61,63,65,67,69,71,73,75,-1,77,79,81,83,85,87,89,-1,91,93,95,97,99,101,103,105,107,109,-1,-1,-1,-1,-1,-1,-1,-1,-1,-1,-1,-1,-1,-1,-1,-1,-1,-1,-1,-1,-1,-1,-1,-1,-1,-1,-1,-1,-1,-1,-1,-1,-1,-1,-1,-1,-1,-1,-1,-1,-1,-1,-1,-1,-1,-1,-1,-1,-1,-1,-1,-1],"loss_changes":[3.532155E4,1.538827E4,1.2983538E4,6.305949E3,5.749321E3,8.729972E3,5.772117E3,7.872492E2,4.3572227E3,2.5347173E3,6.1496367E3,3.9185805E4,2.6907415E3,5.332456E3,3.4832637E3,9.760674E2,0E0,2.6810898E3,4.575048E3,1.6838873E3,3.6529382E3,6.121965E3,5.781836E2,7.660301E3,1.06646305E5,6.4614355E2,4.9719287E2,0E0,4.3303047E3,3.7855784E3,2.8038965E3,7.665828E2,8.605319E2,7.959927E2,2.0731133E3,1.1393773E3,1.0825791E3,2.618005E3,1.1795703E3,1.484161E3,0E0,2.788795E3,4.1262886E3,4.6252673E2,4.3681482E2,4.198552E3,1.355089E3,8.220405E2,0E0,1.9915508E3,1.1428799E3,8.0373083E2,2.7606607E2,1.2911284E3,2.4591333E3,2.259555E3,5.27291E2,2.0699575E3,1.2506465E3,0E0,0E0,0E0,0E0,0E0,0E0,0E0,0E0,0E0,0E0,0E0,0E0,0E0,0E0,0E0,0E0,0E0,0E0,0E0,0E0,0E0,0E0,0E0,0E0,0E0,0E0,0E0,0E0,0E0,0E0,0E0,0E0,0E0,0E0,0E0,0E0,0E0,0E0,0E0,0E0,0E0,0E0,0E0,0E0,0E0,0E0,0E0,0E0,0E0,0E0,0E0,0E0],"parents":[2147483647,0,0,1,1,2,2,3,3,4,4,5,5,6,6,7,7,8,8,9,9,10,10,11,11,12,12,13,13,14,14,15,15,17,17,18,18,19,19,20,20,21,21,22,22,23,23,24,24,25,25,26,26,28,28,29,29,30,30,31,31,32,32,33,33,34,34,35,35,36,36,37,37,38,38,39,39,41,41,42,42,43,43,44,44,45,45,46,46,47,47,49,49,50,50,51,51,52,52,53,53,54,54,55,55,56,56,57,57,58,58],"right_children":[2,4,6,8,10,12,14,16,18,20,22,24,26,28,30,32,-1,34,36,38,40,42,44,46,48,50,52,-1,54,56,58,60,62,64,66,68,70,72,74,76,-1,78,80,82,84,86,88,90,-1,92,94,96,98,100,102,104,106,108,110,-1,-1,-1,-1,-1,-1,-1,-1,-1,-1,-1,-1,-1,-1,-1,-1,-1,-1,-1,-1,-1,-1,-1,-1,-1,-1,-1,-1,-1,-1,-1,-1,-1,-1,-1,-1,-1,-1,-1,-1,-1,-1,-1,-1,-1,-1,-1,-1,-1,-1,-1,-1],"split_conditions":[1.8436714E2,2.907417E0,2E-1,4.1685616E1,6.271331E1,1.4198834E1,2.713417E0,2.5740833E0,2.2427162E1,1.9786585E1,2.495452E1,1.3663418E1,2.0444916E1,1.0495713E1,2.1924562E1,8.000001E-1,-3.6717606E0,-3.2740831E0,7.797911E1,1.4345898E1,1E-1,7.825916E0,9.319917E0,2.3291779E2,2.4766848E1,1.5463246E1,1.3513193E1,1.4273423E1,2.218351E2,1.9611582E1,9.0000004E-1,-3.8666744E-2,1.55925E0,8.78872E0,1.1269782E1,-1.1636667E0,2.7E1,1.3730083E1,1.51884165E1,2.0669668E1,9.355993E0,1.6155026E2,2.3780334E1,7.961333E0,1.1644668E1,2.1261345E1,2.3565567E1,1.4101169E1,8.2227104E1,1.4917212E1,2.9211725E2,2.6931247E2,2.5087648E2,3E-1,6.7000003E0,2.4756691E2,2.170354E2,5.0571666E0,2.4290695E2,2.0743554E0,-2.0945349E0,-1.7218649E0,7.0999894E0,3.2938623E0,-2.9039211E0,2.579718E0,6.2911415E0,-3.8583465E0,6.177989E-1,6.1656404E0,1.7393179E0,2.3180761E0,-1.1433723E0,-2.7099667E0,-4.902848E-1,-4.56625E0,2.1116505E0,4.059687E0,1.0145874E0,8.6956525E-1,5.1110044E0,-9.7413725E-1,1.1818495E0,-3.0367079E0,-8.76551E-1,3.8259408E0,2.6280212E-1,1.6150197E-1,-1.7742556E0,-1.8716205E0,5.326749E0,-9.6757996E-1,6.020755E0,-1.1295302E0,-3.0618649E0,3.775948E-1,8.341868E0,2.2559202E0,-8.47976E-1,-3.3091931E0,5.474043E0,-1.8217999E0,9.097378E0,-3.521016E-2,-1.4051011E0,3.4529573E-1,4.914566E0,2.8254254E0,-8.805636E-1,-1.5967456E0,-2.4036863E0],"split_indices":[3,0,1,3,3,0,0,0,2,0,2,0,0,2,2,1,0,0,3,2,1,0,0,3,2,2,2,0,3,0,1,0,0,2,2,0,2,0,2,0,0,3,0,0,0,2,2,0,0,2,3,3,3,1,1,3,3,0,3,0,0,0,0,0,0,0,0,0,0,0,0,0,0,0,0,0,0,0,0,0,0,0,0,0,0,0,0,0,0,0,0,0,0,0,0,0,0,0,0,0,0,0,0,0,0,0,0,0,0,0,0],"split_type":[0,0,0,0,0,0,0,0,0,0,0,0,0,0,0,0,0,0,0,0,0,0,0,0,0,0,0,0,0,0,0,0,0,0,0,0,0,0,0,0,0,0,0,0,0,0,0,0,0,0,0,0,0,0,0,0,0,0,0,0,0,0,0,0,0,0,0,0,0,0,0,0,0,0,0,0,0,0,0,0,0,0,0,0,0,0,0,0,0,0,0,0,0,0,0,0,0,0,0,0,0,0,0,0,0,0,0,0,0,0,0],"sum_hessian":[3.05E3,1.132E3,1.918E3,1.87E2,9.45E2,5.24E2,1.394E3,2.4E1,1.63E2,3.41E2,6.04E2,3.27E2,1.97E2,4.7E1,1.347E3,1.9E1,5E0,1.21E2,4.2E1,3.22E2,1.9E1,5.29E2,7.5E1,3.21E2,6E0,1.82E2,1.5E1,2E0,4.5E1,4.57E2,8.9E2,1.6E1,3E0,6E0,1.15E2,1.9E1,2.3E1,7.9E1,2.43E2,1.4E1,5E0,1.55E2,3.74E2,4E1,3.5E1,1.36E2,1.85E2,5E0,1E0,4.7E1,1.35E2,4E0,1.1E1,1.7E1,2.8E1,4.43E2,1.4E1,1.57E2,7.33E2,5E0,1.1E1,1E0,2E0,2E0,4E0,1.8E1,9.7E1,9E0,1E1,1.4E1,9E0,4.6E1,3.3E1,2.3E1,2.2E2,3E0,1.1E1,1.19E2,3.6E1,3.53E2,2.1E1,2.8E1,1.2E1,1.7E1,1.8E1,9.2E1,4.4E1,1.44E2,4.1E1,4E0,1E0,4.4E1,3E0,9.6E1,3.9E1,2E0,2E0,8E0,3E0,1E0,1.6E1,2.7E1,1E0,1.88E2,2.55E2,3E0,1.1E1,1.4E1,1.43E2,4.28E2,3.05E2],"tree_param":{"num_deleted":"0","num_feature":"4","num_nodes":"111","size_leaf_vector":"1"}},{"base_weights":[1.280911E-1,7.409301E0,-6.627588E-1,9.769521E0,-3.7300122E0,1.6205618E0,-2.4649498E0,4.535886E0,1.3671857E1,-4.793124E0,7.7327714E0,4.057237E0,-3.1535536E-1,-7.323427E-1,-3.541352E0,8.21197E0,-1.5820062E0,1.8371952E1,8.50115E0,-6.3406696E0,1.1021939E1,1.0628471E1,2.886217E0,-1.7027634E0,6.150282E0,8.205538E-3,-8.408567E0,5.0671406E0,-4.0664086E0,5.850728E0,4.3938854E1,-4.3946123E0,-1.649323E-1,1.5150726E1,1.2795172E1,5.641209E-2,1.2194548E1,1.0987149E1,-7.3329043E0,4.4312797E0,-5.9610444E-1,-5.042289E0,1.1508021E1,4.068142E0,-3.203722E0,-2.018222E0,6.899761E0,4.236817E0,1.2008506E1,-8.677037E-1,5.836463E1,-1.0078062E1,2.0334063E0,1.0622516E0,1.2022583E1,-2.757398E0,-4.950282E0,2.4004476E0,-1.9690628E0,1.8778334E1,-1.8041857E0,-7.3915124E-1,2.6291826E0,4.1619864E0,1.1205759E1,-9.689744E-1,1.2968987E0,8.925065E0,2.5414872E0,8.815924E0,-3.8717058E0,-1.083046E0,-2.8791502E0,2.8361483E0,-3.3089325E0,8.654379E0,3.1245644E0,1.8599701E0,9.255234E-2,-1.8622072E0,1.9957926E0,-3.2184243E-1,-1.3615382E0,8.462573E0,8.8949174E-1,-2.267836E0,1.5891628E0,6.2614336E0,1.6298221E0,1.6877511E-1,-9.1080856E-1,-4.424264E-1,3.557181E1,-1.925338E0,-4.0838966E0,-2.4343348E0,2.03053E0,-2.8898987E-1,4.1439986E0,8.209047E0,1.5254147E0,-2.7033603E-1,-1.9667926E0,-1.6174953E0,2.3358852E-1],"categories":[],"categories_nodes":[],"categories_segments":[],"categories_sizes":[],"default_left":[0,0,0,0,0,0,0,0,0,0,0,0,0,0,0,0,0,0,0,0,0,0,0,0,0,0,0,0,0,0,0,0,0,0,0,0,0,0,0,0,0,0,0,0,0,0,0,0,0,0,0,0,0,0,0,0,0,0,0,0,0,0,0,0,0,0,0,0,0,0,0,0,0,0,0,0,0,0,0,0,0,0,0,0,0,0,0,0,0,0,0,0,0,0,0,0,0,0,0,0,0,0,0,0,0],"id":3,"left_children":[1,3,5,7,9,11,13,15,17,19,-1,21,23,25,27,29,31,33,35,37,39,41,43,45,47,49,51,53,55,57,59,-1,61,63,-1,65,67,69,71,-1,-1,73,75,77,79,81,83,85,87,89,91,93,95,97,99,101,103,-1,-1,-1,-1,-1,-1,-1,-1,-1,-1,-1,-1,-1,-1,-1,-1,-1,-1,-1,-1,-1,-1,-1,-1,-1,-1,-1,-1,-1,-1,-1,-1,-1,-1,-1,-1,-1,-1,-1,-1,-1,-1,-1,-1,-1,-1,-1,-1],"loss_changes":[1.757362E4,7.8975195E3,1.1332534E4,4.9825664E3,1.7860559E3,5.7326797E3,2.8676152E3,2.4194094E3,3.2705137E3,1.3425621E3,0E0,4.109259E3,6.0924565E3,3.3596768E3,4.310034E3,5.3950347E3,7.567596E2,5.062918E3,2.1514062E3,9.0584424E2,2.732024E2,1.1744668E3,3.3096492E3,1.5309066E3,1.2942632E3,2.7652703E4,9.26999E2,1.5192965E3,1.02186426E3,1.7613284E3,4.104035E3,0E0,8.016051E2,1.3536533E3,0E0,3.2243347E2,2.8851719E3,1.6980833E3,3.5309985E2,0E0,0E0,5.3825E2,1.1586279E3,3.0757056E3,2.2616646E3,1.2817725E3,1.5932759E3,1.1908419E3,1.5767485E3,1.6547156E3,2.899738E4,4.948794E2,4.3932495E2,9.4311285E2,1.9895278E3,2.5536833E3,1.3519209E3,0E0,0E0,0E0,0E0,0E0,0E0,0E0,0E0,0E0,0E0,0E0,0E0,0E0,0E0,0E0,0E0,0E0,0E0,0E0,0E0,0E0,0E0,0E0,0E0,0E0,0E0,0E0,0E0,0E0,0E0,0E0,0E0,0E0,0E0,0E0,0E0,0E0,0E0,0E0,0E0,0E0,0E0,0E0,0E0,0E0,0E0,0E0,0E0],"parents":[2147483647,0,0,1,1,2,2,3,3,4,4,5,5,6,6,7,7,8,8,9,9,11,11,12,12,13,13,14,14,15,15,16,16,17,17,18,18,19,19,20,20,21,21,22,22,23,23,24,24,25,25,26,26,27,27,28,28,29,29,30,30,32,32,33,33,35,35,36,36,37,37,38,38,41,41,42,42,43,43,44,44,45,45,46,46,47,47,48,48,49,49,50,50,51,51,52,52,53,53,54,54,55,55,56,56],"right_children":[2,4,6,8,10,12,14,16,18,20,-1,22,24,26,28,30,32,34,36,38,40,42,44,46,48,50,52,54,56,58,60,-1,62,64,-1,66,68,70,72,-1,-1,74,76,78,80,82,84,86,88,90,92,94,96,98,100,102,104,-1,-1,-1,-1,-1,-1,-1,-1,-1,-1,-1,-1,-1,-1,-1,-1,-1,-1,-1,-1,-1,-1,-1,-1,-1,-1,-1,-1,-1,-1,-1,-1,-1,-1,-1,-1,-1,-1,-1,-1,-1,-1,-1,-1,-1,-1,-1,-1],"split_conditions":[3.242583E0,2.321934E2,1.961587E1,8.6820244E1,6.7000003E0,1.189075E1,9.0000004E-1,2.2427162E1,1.609969E1,3.3874942E2,7.7327714E0,1.1269782E1,1.9611582E1,3.104679E2,1.3460849E2,3.2E0,2.2963936E1,1.5315873E1,1.8861387E1,9.826088E0,4E-1,1.3997643E1,2.9393533E2,1.05E1,4E-1,3.0391888E2,2.7E1,2.3675303E1,2.2512596E2,7.671932E1,3.5533336E-1,-4.3946123E0,7.797911E1,2.218351E2,1.2795172E1,1.7731598E1,1.1595604E2,2.394667E0,2.1113336E0,4.4312797E0,-5.9610444E-1,9.178235E0,3.0281948E1,2E-1,1.8228943E1,2.6804752E2,1.2492583E1,5.1776142E1,1.1595604E2,1.2536334E1,2.5050413E1,2E-1,4.7571673E0,1.8953249E1,2.5630886E1,3.1087412E1,1.7569668E1,2.4004476E0,-1.9690628E0,1.8778334E1,-1.8041857E0,-7.3915124E-1,2.6291826E0,4.1619864E0,1.1205759E1,-9.689744E-1,1.2968987E0,8.925065E0,2.5414872E0,8.815924E0,-3.8717058E0,-1.083046E0,-2.8791502E0,2.8361483E0,-3.3089325E0,8.654379E0,3.1245644E0,1.8599701E0,9.255234E-2,-1.8622072E0,1.9957926E0,-3.2184243E-1,-1.3615382E0,8.462573E0,8.8949174E-1,-2.267836E0,1.5891628E0,6.2614336E0,1.6298221E0,1.6877511E-1,-9.1080856E-1,-4.424264E-1,3.557181E1,-1.925338E0,-4.0838966E0,-2.4343348E0,2.03053E0,-2.8898987E-1,4.1439986E0,8.209047E0,1.5254147E0,-2.7033603E-1,-1.9667926E0,-1.6174953E0,2.3358852E-1],"split_indices":[0,3,2,3,1,0,1,2,2,3,0,2,0,3,3,1,2,2,2,2,1,3,3,1,1,3,2,2,3,3,0,0,3,3,0,2,3,0,0,0,0,2,3,1,2,3,0,3,3,0,2,1,0,0,2,2,0,0,0,0,0,0,0,0,0,0,0,0,0,0,0,0,0,0,0,0,0,0,0,0,0,0,0,0,0,0,0,0,0,0,0,0,0,0,0,0,0,0,0,0,0,0,0,0,0],"split_type":[0,0,0,0,0,0,0,0,0,0,0,0,0,0,0,0,0,0,0,0,0,0,0,0,0,0,0,0,0,0,0,0,0,0,0,0,0,0,0,0,0,0,0,0,0,0,0,0,0,0,0,0,0,0,0,0,0,0,0,0,0,0,0,0,0,0,0,0,0,0,0,0,0,0,0,0,0,0,0,0,0,0,0,0,0,0,0,0,0,0,0,0,0,0,0,0,0,0,0,0,0,0,0,0,0],"sum_hessian":[3.05E3,2.98E2,2.752E3,2.46E2,5.2E1,1.214E3,1.538E3,1.06E2,1.4E2,5.1E1,1E0,5.37E2,6.77E2,5.9E2,9.48E2,6.6E1,4E1,7.2E1,6.8E1,4.7E1,4E0,8E1,4.57E2,5.58E2,1.19E2,5.39E2,5.1E1,5.4E1,8.94E2,6.3E1,3E0,3E0,3.7E1,6.5E1,7E0,2.1E1,4.7E1,2E0,4.5E1,3E0,1E0,4E0,7.6E1,3.83E2,7.4E1,5.39E2,1.9E1,9.1E1,2.8E1,5.32E2,7E0,4.4E1,7E0,3.5E1,1.9E1,3.62E2,5.32E2,5.4E1,9E0,2E0,1E0,3E1,7E0,6.3E1,2E0,1.2E1,9E0,7E0,4E1,1E0,1E0,1.8E1,2.7E1,1E0,3E0,3E0,7.3E1,2.44E2,1.39E2,5.7E1,1.7E1,3.93E2,1.46E2,2E0,1.7E1,7E0,8.4E1,1.1E1,1.7E1,3.21E2,2.11E2,4E0,3E0,2.3E1,2.1E1,2E0,5E0,3.1E1,4E0,5E0,1.4E1,2.44E2,1.18E2,4.94E2,3.8E1],"tree_param":{"num_deleted":"0","num_feature":"4","num_nodes":"105","size_leaf_vector":"1"}},{"base_weights":[1.3346067E-1,4.0826287E0,-6.440357E-1,6.320808E0,-2.7182872E0,1.2230139E0,-1.6631676E0,-5.1420915E-1,8.042582E0,-3.816864E0,7.039981E0,1.9574777E0,-2.7833033E0,-1.7948776E0,9.737567E0,2.9312236E0,-3.946457E0,2.6750648E1,7.3766317E0,-6.5133303E-1,-6.318852E0,2.132921E1,-1.6806998E0,3.87772E0,6.883669E-1,-5.598174E0,5.5075E-1,-1.3519359E0,-4.074687E0,1.0425653E1,-3.9720097E-1,-9.554257E0,5.4908338E0,-2.3779154E0,-3.6531348E0,9.72544E0,4.3798614E0,1.0728971E1,4.9892926E0,-4.894845E0,1.723655E1,-7.179999E0,1.5960401E0,3.2618523E-2,2.6607147E1,3.455841E0,-2.689601E0,7.4871264E0,2.0628052E0,-9.6453303E-1,3.9155855E0,-6.679568E0,1.1093531E1,-2.447636E0,1.16482725E1,-2.7321446E-1,-3.3406107E0,2.557404E0,-4.9642267E0,1.1701576E1,3.0345325E0,3.247347E-2,-5.048459E0,-3.107112E0,2.4101663E0,3.2863063E-1,-1.6578588E0,2.6299644E0,5.6128345E0,1.1144022E0,4.7276425E0,-2.8560517E0,-4.106445E-1,2.3003606E-1,1.252485E1,-2.824022E-1,-2.4538033E0,6.5728555E0,-1.6323377E0,9.16308E0,2.2196698E0,2.7388067E0,-4.9897644E-1,1.9539603E0,1.1139287E1,-3.7491112E0,8.8861555E-1,-4.5625672E-1,1.776777E0,6.523771E-1,2.3362563E0,-1.5076979E0,-3.520446E0,9.141458E0,-4.1065466E-1,9.505736E-2,-1.7058244E0,4.859796E-1,7.424822E0,-2.0733437E-1,1.3734657E1,2.466509E0,-1.1580192E0,-1.0596869E0,2.9083629E0,-1.6196746E0,1.5938041E0,2.7266202E0,5.73701E0,-2.2206879E0,2.6942716E0],"categories":[],"categories_nodes":[],"categories_segments":[],"categories_sizes":[],"default_left":[0,0,0,0,0,0,0,0,0,0,0,0,0,0,0,0,0,0,0,0,0,0,0,0,0,0,0,0,0,0,0,0,0,0,0,0,0,0,0,0,0,0,0,0,0,0,0,0,0,0,0,0,0,0,0,0,0,0,0,0,0,0,0,0,0,0,0,0,0,0,0,0,0,0,0,0,0,0,0,0,0,0,0,0,0,0,0,0,0,0,0,0,0,0,0,0,0,0,0,0,0,0,0,0,0,0,0,0,0,0,0],"id":4,"left_children":[1,3,5,7,9,11,13,15,17,19,21,23,25,27,29,31,33,35,37,39,41,43,45,47,49,51,53,55,57,59,-1,61,63,65,-1,-1,-1,67,69,71,73,75,77,-1,79,81,-1,83,85,87,89,91,93,95,97,99,101,103,105,107,109,-1,-1,-1,-1,-1,-1,-1,-1,-1,-1,-1,-1,-1,-1,-1,-1,-1,-1,-1,-1,-1,-1,-1,-1,-1,-1,-1,-1,-1,-1,-1,-1,-1,-1,-1,-1,-1,-1,-1,-1,-1,-1,-1,-1,-1,-1,-1,-1,-1,-1],"loss_changes":[9.370614E3,7.658461E3,4.8540977E3,4.4525713E3,1.3668969E3,2.6566362E3,2.495103E3,9.221376E2,3.5651777E3,8.9085767E2,1.6558015E3,1.854325E3,1.3169731E3,1.6425225E3,1.5841882E2,1.2988215E3,4.7453894E2,2.1537207E2,2.2913975E3,3.9556497E3,4.408606E2,5.571089E2,3.677433E2,1.9694375E3,2.4575408E3,1.4459231E3,2.1913633E3,2.9337563E3,1.576065E3,1.3424011E2,0E0,4.9381268E2,1.4131726E3,3.7784644E2,0E0,0E0,0E0,1.7309727E3,2.3162358E3,6.719485E2,4.0052112E3,3.4767114E2,1.1198575E3,0E0,7.6460205E1,1.8944403E2,0E0,2.6741177E3,2.6948728E3,1.1776033E3,1.0346641E3,5.430112E2,1.2491906E3,4.6734003E2,1.7992642E3,1.7122584E4,2.9206587E3,1.4250594E3,1.074019E3,1.17072266E2,3.1472424E2,0E0,0E0,0E0,0E0,0E0,0E0,0E0,0E0,0E0,0E0,0E0,0E0,0E0,0E0,0E0,0E0,0E0,0E0,0E0,0E0,0E0,0E0,0E0,0E0,0E0,0E0,0E0,0E0,0E0,0E0,0E0,0E0,0E0,0E0,0E0,0E0,0E0,0E0,0E0,0E0,0E0,0E0,0E0,0E0,0E0,0E0,0E0,0E0,0E0,0E0],"parents":[2147483647,0,0,1,1,2,2,3,3,4,4,5,5,6,6,7,7,8,8,9,9,10,10,11,11,12,12,13,13,14,14,15,15,16,16,17,17,18,18,19,19,20,20,21,21,22,22,23,23,24,24,25,25,26,26,27,27,28,28,29,29,31,31,32,32,33,33,37,37,38,38,39,39,40,40,41,41,42,42,44,44,45,45,47,47,48,48,49,49,50,50,51,51,52,52,53,53,54,54,55,55,56,56,57,57,58,58,59,59,60,60],"right_children":[2,4,6,8,10,12,14,16,18,20,22,24,26,28,30,32,34,36,38,40,42,44,46,48,50,52,54,56,58,60,-1,62,64,66,-1,-1,-1,68,70,72,74,76,78,-1,80,82,-1,84,86,88,90,92,94,96,98,100,102,104,106,108,110,-1,-1,-1,-1,-1,-1,-1,-1,-1,-1,-1,-1,-1,-1,-1,-1,-1,-1,-1,-1,-1,-1,-1,-1,-1,-1,-1,-1,-1,-1,-1,-1,-1,-1,-1,-1,-1,-1,-1,-1,-1,-1,-1,-1,-1,-1,-1,-1,-1,-1],"split_conditions":[4.8155007E0,2.321934E2,1.8014393E1,6.0694004E1,3.400596E2,2.9211725E2,2.2394669E1,1.7673029E1,6.338111E1,1.8709612E1,1E-1,1.189075E1,1.45095E1,7.1999993E0,2.495452E1,9.826088E0,4.0990834E0,1.4032501E0,1.7163355E1,1.7163355E1,6.7000003E0,9.422101E0,1.7163355E1,1.257426E1,1.8330086E1,4.9E0,3.4326575E2,1.3730083E1,2.1068459E1,6E-1,-3.9720097E-1,8.78872E0,-9.3866664E-1,2.4098497E1,-3.6531348E0,9.72544E0,4.3798614E0,2E-1,4.59675E0,1E-1,2.897541E2,1E-1,2.713417E0,3.2618523E-2,4.7571673E0,3.491957E2,-2.689601E0,2.7949774E2,1.2879752E1,1.7533146E1,4E-1,6E-1,5.626167E0,1.5463246E1,4E-1,1.3663418E1,2.1384657E1,1.1899999E1,1.8005085E1,5E-1,2.3119669E1,3.247347E-2,-5.048459E0,-3.107112E0,2.4101663E0,3.2863063E-1,-1.6578588E0,2.6299644E0,5.6128345E0,1.1144022E0,4.7276425E0,-2.8560517E0,-4.106445E-1,2.3003606E-1,1.252485E1,-2.824022E-1,-2.4538033E0,6.5728555E0,-1.6323377E0,9.16308E0,2.2196698E0,2.7388067E0,-4.9897644E-1,1.9539603E0,1.1139287E1,-3.7491112E0,8.8861555E-1,-4.5625672E-1,1.776777E0,6.523771E-1,2.3362563E0,-1.5076979E0,-3.520446E0,9.141458E0,-4.1065466E-1,9.505736E-2,-1.7058244E0,4.859796E-1,7.424822E0,-2.0733437E-1,1.3734657E1,2.466509E0,-1.1580192E0,-1.0596869E0,2.9083629E0,-1.6196746E0,1.5938041E0,2.7266202E0,5.73701E0,-2.2206879E0,2.6942716E0],"split_indices":[0,3,2,3,3,3,0,2,3,2,1,0,0,1,2,2,0,0,2,2,1,2,2,2,0,1,3,0,2,1,0,2,0,2,0,0,0,1,0,1,3,1,0,0,0,3,0,3,2,2,1,1,0,2,1,0,3,1,0,1,0,0,0,0,0,0,0,0,0,0,0,0,0,0,0,0,0,0,0,0,0,0,0,0,0,0,0,0,0,0,0,0,0,0,0,0,0,0,0,0,0,0,0,0,0,0,0,0,0,0,0],"split_type":[0,0,0,0,0,0,0,0,0,0,0,0,0,0,0,0,0,0,0,0,0,0,0,0,0,0,0,0,0,0,0,0,0,0,0,0,0,0,0,0,0,0,0,0,0,0,0,0,0,0,0,0,0,0,0,0,0,0,0,0,0,0,0,0,0,0,0,0,0,0,0,0,0,0,0,0,0,0,0,0,0,0,0,0,0,0,0,0,0,0,0,0,0,0,0,0,0,0,0,0,0,0,0,0,0,0,0,0,0,0,0],"sum_hessian":[3.05E3,5.01E2,2.549E3,3.77E2,1.24E2,9E2,1.649E3,7.6E1,3.01E2,1.12E2,1.2E1,7.61E2,1.39E2,1.631E3,1.8E1,3.8E1,3.8E1,9E0,2.92E2,5E1,6.2E1,4E0,8E0,3.02E2,4.59E2,7.5E1,6.4E1,1.367E3,2.64E2,1.7E1,1E0,6E0,3.2E1,3.3E1,5E0,5E0,4E0,1.2E2,1.72E2,4.1E1,9E0,5.6E1,6E0,1E0,3E0,5E0,3E0,1E2,2.02E2,3.04E2,1.55E2,7.1E1,4E0,5.1E1,1.3E1,8.87E2,4.8E2,3.1E1,2.33E2,1.4E1,3E0,3E0,3E0,4E0,2.8E1,1.6E1,1.7E1,9.8E1,2.2E1,1.55E2,1.7E1,1.7E1,2.4E1,6E0,3E0,8E0,4.8E1,1E0,5E0,2E0,1E0,2E0,3E0,9.8E1,2E0,1.1E1,1.91E2,2.82E2,2.2E1,1.08E2,4.7E1,5.5E1,1.6E1,1E0,3E0,2.8E1,2.3E1,8E0,5E0,8.8E2,7E0,2E1,4.6E2,1.7E1,1.4E1,2.24E2,9E0,1.2E1,2E0,1E0,2E0],"tree_param":{"num_deleted":"0","num_feature":"4","num_nodes":"111","size_leaf_vector":"1"}},{"base_weights":[1.2288681E-1,4.1088295E0,-3.1006625E-1,5.046616E0,-2.8824048E0,3.778144E-1,-1.9780478E0,-2.2020388E0,5.8817034E0,-6.780744E0,1.3926424E0,1.0683899E-1,2.211914E1,-3.1782275E-1,-3.2063577E0,-4.43879E0,3.9446874E0,6.3163486E0,-7.3495607E0,-2.2873142E0,-8.22216E0,3.5588036E0,-4.9511375E0,1.090868E0,-1.6234592E0,3.722571E0,1.1317135E2,1.0064774E1,-7.5733346E-1,-3.418573E0,4.386196E0,-5.8083067E0,3.4427326E0,1.1543711E1,-1.9620793E0,4.948435E0,1.0683096E1,6.8647194E-1,-3.6925426E0,-5.36792E0,1.9673573E0,-3.7923644E0,-5.190418E0,-3.2064426E0,9.033544E0,-2.869749E-1,-1.7131892E0,2.392583E0,-5.689703E-1,-8.34493E-1,-4.2760735E0,-7.300439E0,6.745658E0,1.2012765E1,6.2497066E1,8.664619E0,4.5217204E0,1.1866569E1,-1.1078235E0,-1.7404078E0,-4.683509E0,-6.427094E0,6.93653E0,1.0934346E0,-2.7606966E0,-1.7317091E0,5.1947465E0,2.1162891E0,1.8514393E-1,7.6160483E0,1.8993857E0,-3.4533653E-1,9.29888E-1,-1.9506398E0,-1.246605E-1,-2.8420222E-1,-1.839831E0,1.3665849E-1,-2.472274E0,3.4913318E0,-1.3794091E0,-3.4182194E-1,1.052079E0,-4.5641312E-1,1.5060173E0,-3.0859375E-1,2.867541E0,-2.4983802E0,-1.0392122E0,-3.1699085E0,-4.8031083E-1,5.82459E0,4.061465E-1,7.8240895E0,-2.418345E0,2.0916018E0,-6.3655573E-1,6.3049674E-1,9.208753E0,-1.8225771E-1,-1.7871412E0,4.470343E-2,-1.0952526E0,-1.6202906E0,-4.858667E-1,-3.916377E-1,-2.5005548E0,3.0987418E0,2.3987137E-1],"categories":[],"categories_nodes":[],"categories_segments":[],"categories_sizes":[],"default_left":[0,0,0,0,0,0,0,0,0,0,0,0,0,0,0,0,0,0,0,0,0,0,0,0,0,0,0,0,0,0,0,0,0,0,0,0,0,0,0,0,0,0,0,0,0,0,0,0,0,0,0,0,0,0,0,0,0,0,0,0,0,0,0,0,0,0,0,0,0,0,0,0,0,0,0,0,0,0,0,0,0,0,0,0,0,0,0,0,0,0,0,0,0,0,0,0,0,0,0,0,0,0,0,0,0,0,0,0,0],"id":5,"left_children":[1,3,5,7,9,11,13,15,17,19,21,23,25,27,29,31,33,35,37,39,41,43,45,47,49,51,53,55,57,59,61,63,-1,65,-1,67,69,71,-1,73,-1,-1,75,77,79,-1,-1,81,83,85,87,89,91,93,-1,-1,95,97,99,101,103,105,107,-1,-1,-1,-1,-1,-1,-1,-1,-1,-1,-1,-1,-1,-1,-1,-1,-1,-1,-1,-1,-1,-1,-1,-1,-1,-1,-1,-1,-1,-1,-1,-1,-1,-1,-1,-1,-1,-1,-1,-1,-1,-1,-1,-1,-1,-1],"loss_changes":[5.266464E3,1.9748755E3,3.1594631E3,1.6110127E3,6.094042E2,1.1485799E4,1.6385547E3,4.0247308E2,1.4093857E3,1.0425452E2,2.6496982E2,3.2828037E3,3.977987E4,1.5728213E3,7.59395E2,5.243554E2,7.129021E2,1.3210029E3,3.272494E2,1.98693E2,1.2195099E2,5.474971E2,9.706505E0,2.6567834E3,1.459315E3,7.4904016E2,3.5999305E4,1.3296768E3,1.473248E3,9.470957E2,4.030893E2,6.7521893E2,0E0,5.9970465E2,0E0,1.6100806E3,3.2946133E3,2.130564E1,0E0,2.5383408E1,0E0,0E0,3.4174866E1,1.3280658E2,3.3750873E2,0E0,0E0,2.7158037E3,2.8873948E3,1.0994565E3,4.9759082E2,7.615192E1,1.1350298E3,1.0574086E3,0E0,0E0,2.101374E2,1.5902838E3,7.775852E2,7.0441815E2,5.540083E2,1.8436363E1,2.2076447E2,0E0,0E0,0E0,0E0,0E0,0E0,0E0,0E0,0E0,0E0,0E0,0E0,0E0,0E0,0E0,0E0,0E0,0E0,0E0,0E0,0E0,0E0,0E0,0E0,0E0,0E0,0E0,0E0,0E0,0E0,0E0,0E0,0E0,0E0,0E0,0E0,0E0,0E0,0E0,0E0,0E0,0E0,0E0,0E0,0E0,0E0],"parents":[2147483647,0,0,1,1,2,2,3,3,4,4,5,5,6,6,7,7,8,8,9,9,10,10,11,11,12,12,13,13,14,14,15,15,16,16,17,17,18,18,19,19,20,20,21,21,22,22,23,23,24,24,25,25,26,26,27,27,28,28,29,29,30,30,31,31,33,33,35,35,36,36,37,37,39,39,42,42,43,43,44,44,47,47,48,48,49,49,50,50,51,51,52,52,53,53,56,56,57,57,58,58,59,59,60,60,61,61,62,62],"right_children":[2,4,6,8,10,12,14,16,18,20,22,24,26,28,30,32,34,36,38,40,42,44,46,48,50,52,54,56,58,60,62,64,-1,66,-1,68,70,72,-1,74,-1,-1,76,78,80,-1,-1,82,84,86,88,90,92,94,-1,-1,96,98,100,102,104,106,108,-1,-1,-1,-1,-1,-1,-1,-1,-1,-1,-1,-1,-1,-1,-1,-1,-1,-1,-1,-1,-1,-1,-1,-1,-1,-1,-1,-1,-1,-1,-1,-1,-1,-1,-1,-1,-1,-1,-1,-1,-1,-1,-1,-1,-1,-1],"split_conditions":[3.242583E0,2.7396454E2,2.5809765E1,4.1685616E1,3.085584E2,2.5460936E1,2.4999995E0,3E-1,8.099999E0,1.8259164E0,2.5809765E1,2.3675897E2,2.4562794E2,4.5998417E1,1.8005085E1,3.0113335E0,2.7E1,1E0,1.0970001E0,2.9809903E2,8E-1,1.6488333E0,2.5740833E0,1.3663418E1,2.2007162E1,8.509251E0,6.5759177E0,2.6562046E1,3.7884166E0,8.473834E0,3.6E0,-3.8666744E-2,3.4427326E0,1.1814947E1,-1.9620793E0,1.8709612E1,3.5533336E-1,3.5533336E-1,-3.6925426E0,1.5596767E1,1.9673573E0,-3.7923644E0,1.6981165E1,8.759165E-1,3.6E0,-2.869749E-1,-1.7131892E0,6.271331E1,2.1346748E1,1.3900001E1,2.2427162E1,5.3376522E1,1.0461335E1,6.3113327E0,6.2497066E1,8.664619E0,3.1452133E1,3.5863333E0,2.9393533E2,2.4007745E2,3.8881668E1,1.8330086E1,3.1311724E1,1.0934346E0,-2.7606966E0,-1.7317091E0,5.1947465E0,2.1162891E0,1.8514393E-1,7.6160483E0,1.8993857E0,-3.4533653E-1,9.29888E-1,-1.9506398E0,-1.246605E-1,-2.8420222E-1,-1.839831E0,1.3665849E-1,-2.472274E0,3.4913318E0,-1.3794091E0,-3.4182194E-1,1.052079E0,-4.5641312E-1,1.5060173E0,-3.0859375E-1,2.867541E0,-2.4983802E0,-1.0392122E0,-3.1699085E0,-4.8031083E-1,5.82459E0,4.061465E-1,7.8240895E0,-2.418345E0,2.0916018E0,-6.3655573E-1,6.3049674E-1,9.208753E0,-1.8225771E-1,-1.7871412E0,4.470343E-2,-1.0952526E0,-1.6202906E0,-4.858667E-1,-3.916377E-1,-2.5005548E0,3.0987418E0,2.3987137E-1],"split_indices":[0,3,2,3,3,2,1,1,1,0,2,3,3,3,0,0,2,1,0,3,1,0,0,0,2,0,0,2,0,0,1,0,0,3,0,2,0,0,0,2,0,0,2,0,1,0,0,3,0,1,2,3,0,0,0,0,2,0,3,3,2,0,2,0,0,0,0,0,0,0,0,0,0,0,0,0,0,0,0,0,0,0,0,0,0,0,0,0,0,0,0,0,0,0,0,0,0,0,0,0,0,0,0,0,0,0,0,0,0],"split_type":[0,0,0,0,0,0,0,0,0,0,0,0,0,0,0,0,0,0,0,0,0,0,0,0,0,0,0,0,0,0,0,0,0,0,0,0,0,0,0,0,0,0,0,0,0,0,0,0,0,0,0,0,0,0,0,0,0,0,0,0,0,0,0,0,0,0,0,0,0,0,0,0,0,0,0,0,0,0,0,0,0,0,0,0,0,0,0,0,0,0,0,0,0,0,0,0,0,0,0,0,0,0,0,0,0,0,0,0,0],"sum_hessian":[3.05E3,2.98E2,2.752E3,2.63E2,3.5E1,1.949E3,8.03E2,2.7E1,2.36E2,1.8E1,1.7E1,1.926E3,2.3E1,3.42E2,4.61E2,2E1,7E0,2.29E2,7E0,5E0,1.3E1,1.3E1,4E0,1.228E3,6.98E2,2E1,3E0,1.3E1,3.29E2,4.49E2,1.2E1,1.9E1,1E0,4E0,3E0,1.76E2,5.3E1,3E0,4E0,4E0,1E0,4E0,9E0,6E0,7E0,1E0,3E0,6.88E2,5.4E2,5.39E2,1.59E2,4E0,1.6E1,2E0,1E0,2E0,1.1E1,8E0,3.21E2,1.94E2,2.55E2,2E0,1E1,5E0,1.4E1,1E0,3E0,1.18E2,5.8E1,1.1E1,4.2E1,2E0,1E0,3E0,1E0,2E0,7E0,4E0,2E0,6E0,1E0,1.65E2,5.23E2,4.62E2,7.8E1,5.3E2,9E0,2.5E1,1.34E2,2E0,2E0,4E0,1.2E1,1E0,1E0,8E0,3E0,6E0,2E0,2.92E2,2.9E1,9.8E1,9.6E1,2.06E2,4.9E1,1E0,1E0,6E0,4E0],"tree_param":{"num_deleted":"0","num_feature":"4","num_nodes":"109","size_leaf_vector":"1"}},{"base_weights":[1.1561177E-1,1.364149E0,-6.19532E-1,3.638605E0,7.5711906E-1,2.208847E0,-8.396807E-1,2.8682811E0,1.1071408E1,1.8476295E0,-4.2391467E-1,-3.094551E0,3.57452E0,-9.127275E-1,5.9901757E0,9.997171E-1,6.1197004E0,1.5737251E1,3.8986714E0,4.934309E-1,5.086197E0,-7.32725E-1,8.8045025E0,1.888479E0,-1.4377782E1,1.2503716E1,1.4746559E0,9.931819E-2,-1.2509161E0,3.3865905E0,9.9696665E0,-3.4830859E0,3.719129E0,2.4643235E0,1.0644623E1,2.5841516E1,3.3848076E0,-2.1754296E0,3.1223576E0,-2.817146E-1,7.012702E0,1.0192967E1,2.477527E0,-9.701123E-2,-3.2897298E0,1.0730248E1,-1.833313E0,-1.5628895E0,1.0637378E1,-9.559639E-1,-1.5378368E1,1.8710575E1,-1.8395581E0,-1.5516327E1,2.434199E0,-3.083216E0,1.7227223E0,2.0691953E0,-1.5537038E0,5.182937E0,-4.328878E0,3.3957262E0,4.2153573E0,4.0635575E-2,-5.1934905E0,2.2220843E0,-1.5653832E0,2.66878E0,-9.1104037E-1,7.7009087E0,1.791474E0,8.894451E0,3.2649758E0,2.094119E0,-2.7283087E0,1.4836807E0,-3.283499E0,-2.2772104E-1,2.6038578E0,-1.2936664E0,3.7148905E0,2.1160028E0,6.237085E0,2.7907703E0,-1.9613433E-1,3.1416112E-1,-8.2749987E-1,-1.4342955E0,2.0717545E0,3.7138813E0,-1.1118983E0,-1.1242293E0,2.992384E-1,-2.3747735E0,4.3740444E0,-5.523429E0,-2.3227355E0,2.0520535E0,7.0453134E0,1.2287225E0,-6.432984E0,5.3901043E0,4.9966884E-1,1.5835313E0,-1.5652848E0,5.297601E0,4.157734E-1,-6.2220776E-1,2.2651148E0,-1.6184636E0,-4.057929E-1,-1.976828E-1,3.6974947E0,-2.113487E0,1.6549188E-1,2.0740297E0,-1.0736086E0],"categories":[],"categories_nodes":[],"categories_segments":[],"categories_sizes":[],"default_left":[0,0,0,0,0,0,0,0,0,0,0,0,0,0,0,0,0,0,0,0,0,0,0,0,0,0,0,0,0,0,0,0,0,0,0,0,0,0,0,0,0,0,0,0,0,0,0,0,0,0,0,0,0,0,0,0,0,0,0,0,0,0,0,0,0,0,0,0,0,0,0,0,0,0,0,0,0,0,0,0,0,0,0,0,0,0,0,0,0,0,0,0,0,0,0,0,0,0,0,0,0,0,0,0,0,0,0,0,0,0,0,0,0,0,0,0,0],"id":6,"left_children":[1,3,5,7,9,11,13,15,17,19,21,23,25,27,29,31,33,35,37,39,41,43,45,47,49,51,53,55,57,59,61,63,65,67,69,71,73,75,-1,77,79,81,83,85,87,89,91,93,-1,-1,95,97,-1,99,101,103,105,107,109,111,113,115,-1,-1,-1,-1,-1,-1,-1,-1,-1,-1,-1,-1,-1,-1,-1,-1,-1,-1,-1,-1,-1,-1,-1,-1,-1,-1,-1,-1,-1,-1,-1,-1,-1,-1,-1,-1,-1,-1,-1,-1,-1,-1,-1,-1,-1,-1,-1,-1,-1,-1,-1,-1,-1,-1,-1],"loss_changes":[2.8012183E3,1.5587751E3,1.1979924E3,1.3309524E3,1.1521924E3,1.017798E3,8.950045E2,1.3122622E3,6.749165E2,2.0368237E3,1.2318787E3,1.6576677E3,2.062822E3,6.042175E2,1.6309473E2,1.7074458E3,1.2804517E3,1.535092E3,4.180161E2,1.6645388E3,1.7998442E3,6.775241E2,3.0647205E2,2.488488E3,5.1776245E1,2.543767E3,1.5213958E3,2.2940881E3,1.3332119E3,2.0261186E2,1.4010785E2,2.6544185E3,2.9060212E3,1.6191641E3,2.3041594E3,7.591797E1,3.77572E2,4.2881976E2,0E0,1.268509E3,2.1820227E3,1.3838525E3,1.972242E3,1.02300494E3,1.294966E3,3.3161536E2,1.9993225E1,2.1665562E3,0E0,0E0,4.2731934E1,7.460332E2,0E0,6.6902515E2,1.0087754E3,2.7046084E3,1.5535436E3,2.5364443E3,9.2951416E2,4.6707407E2,4.365388E1,1.2287691E2,0E0,0E0,0E0,0E0,0E0,0E0,0E0,0E0,0E0,0E0,0E0,0E0,0E0,0E0,0E0,0E0,0E0,0E0,0E0,0E0,0E0,0E0,0E0,0E0,0E0,0E0,0E0,0E0,0E0,0E0,0E0,0E0,0E0,0E0,0E0,0E0,0E0,0E0,0E0,0E0,0E0,0E0,0E0,0E0,0E0,0E0,0E0,0E0,0E0,0E0,0E0,0E0,0E0,0E0,0E0],"parents":[2147483647,0,0,1,1,2,2,3,3,4,4,5,5,6,6,7,7,8,8,9,9,10,10,11,11,12,12,13,13,14,14,15,15,16,16,17,17,18,18,19,19,20,20,21,21,22,22,23,23,24,24,25,25,26,26,27,27,28,28,29,29,30,30,31,31,32,32,33,33,34,34,35,35,36,36,37,37,39,39,40,40,41,41,42,42,43,43,44,44,45,45,46,46,47,47,50,50,51,51,53,53,54,54,55,55,56,56,57,57,58,58,59,59,60,60,61,61],"right_children":[2,4,6,8,10,12,14,16,18,20,22,24,26,28,30,32,34,36,38,40,42,44,46,48,50,52,54,56,58,60,62,64,66,68,70,72,74,76,-1,78,80,82,84,86,88,90,92,94,-1,-1,96,98,-1,100,102,104,106,108,110,112,114,116,-1,-1,-1,-1,-1,-1,-1,-1,-1,-1,-1,-1,-1,-1,-1,-1,-1,-1,-1,-1,-1,-1,-1,-1,-1,-1,-1,-1,-1,-1,-1,-1,-1,-1,-1,-1,-1,-1,-1,-1,-1,-1,-1,-1,-1,-1,-1,-1,-1,-1,-1,-1,-1,-1,-1],"split_conditions":[1.8014393E1,4.9386663E0,3.242583E0,4.4990835E0,1.8436714E2,2.0073025E1,2.2394669E1,1.477755E1,4.7571673E0,1.2767267E2,2.0997002E1,1.961587E1,2.1889065E1,2E-1,2.3780334E1,1.23172195E2,1E-1,1E-1,1E-1,1.3000002E0,9.1905E0,2E0,6.9999995E0,1.9559633E1,6.739957E1,3.2999997E0,2.2077717E1,9.9124954E1,1.3869421E2,6E-1,2.0929594E1,1.3854155E1,2.4290695E2,1.6488333E0,3E-1,1.3513193E1,2.8272086E2,1.8786649E2,3.1223576E0,2.3780334E1,1.2287555E1,1.680857E1,1.4468864E2,3.05843E2,3.2830078E2,2.1913416E1,2.1346748E1,2.394667E0,1.0637378E1,-9.559639E-1,1.55925E0,2.0275385E1,-1.8395581E0,-3.2740831E0,2.2427162E1,2.7500544E1,1.0436461E2,6.271331E1,1.8892282E1,3E-1,2.3119669E1,1.9559633E1,4.2153573E0,4.0635575E-2,-5.1934905E0,2.2220843E0,-1.5653832E0,2.66878E0,-9.1104037E-1,7.7009087E0,1.791474E0,8.894451E0,3.2649758E0,2.094119E0,-2.7283087E0,1.4836807E0,-3.283499E0,-2.2772104E-1,2.6038578E0,-1.2936664E0,3.7148905E0,2.1160028E0,6.237085E0,2.7907703E0,-1.9613433E-1,3.1416112E-1,-8.2749987E-1,-1.4342955E0,2.0717545E0,3.7138813E0,-1.1118983E0,-1.1242293E0,2.992384E-1,-2.3747735E0,4.3740444E0,-5.523429E0,-2.3227355E0,2.0520535E0,7.0453134E0,1.2287225E0,-6.432984E0,5.3901043E0,4.9966884E-1,1.5835313E0,-1.5652848E0,5.297601E0,4.157734E-1,-6.2220776E-1,2.2651148E0,-1.6184636E0,-4.057929E-1,-1.976828E-1,3.6974947E0,-2.113487E0,1.6549188E-1,2.0740297E0,-1.0736086E0],"split_indices":[2,0,0,0,3,2,0,2,0,3,0,2,2,1,0,3,1,1,1,1,0,1,1,2,3,1,2,3,3,1,2,2,3,0,1,2,3,3,0,0,2,2,3,3,3,0,0,0,0,0,0,2,0,0,2,3,3,3,2,1,0,2,0,0,0,0,0,0,0,0,0,0,0,0,0,0,0,0,0,0,0,0,0,0,0,0,0,0,0,0,0,0,0,0,0,0,0,0,0,0,0,0,0,0,0,0,0,0,0,0,0,0,0,0,0,0,0],"split_type":[0,0,0,0,0,0,0,0,0,0,0,0,0,0,0,0,0,0,0,0,0,0,0,0,0,0,0,0,0,0,0,0,0,0,0,0,0,0,0,0,0,0,0,0,0,0,0,0,0,0,0,0,0,0,0,0,0,0,0,0,0,0,0,0,0,0,0,0,0,0,0,0,0,0,0,0,0,0,0,0,0,0,0,0,0,0,0,0,0,0,0,0,0,0,0,0,0,0,0,0,0,0,0,0,0,0,0,0,0,0,0,0,0,0,0,0,0],"sum_hessian":[3.05E3,1.13E3,1.92E3,2.37E2,8.93E2,1.38E2,1.782E3,2.16E2,2.1E1,4.64E2,4.29E2,2.8E1,1.1E2,1.764E3,1.8E1,1.38E2,7.8E1,1.2E1,9E0,3.28E2,1.36E2,4.16E2,1.3E1,2E1,8E0,2E1,9E1,4.42E2,1.322E3,1.2E1,6E0,5.2E1,8.6E1,4.4E1,3.4E1,6E0,6E0,5E0,4E0,2.94E2,3.4E1,4.5E1,9.1E1,3.34E2,8.2E1,1.1E1,2E0,1.9E1,1E0,1E0,7E0,1.5E1,5E0,4E0,8.6E1,1.49E2,2.93E2,1.1E2,1.212E3,1E1,2E0,3E0,3E0,4.2E1,1E1,6.1E1,2.5E1,2E1,2.4E1,7E0,2.7E1,4E0,2E0,5E0,1E0,3E0,2E0,2.8E2,1.4E1,1.1E1,2.3E1,3.6E1,9E0,2.8E1,6.3E1,2.34E2,1E2,7.2E1,1E1,1E1,1E0,1E0,1E0,1.4E1,5E0,4E0,3E0,5E0,1E1,1E0,3E0,3E0,8.3E1,3E1,1.19E2,5E0,2.88E2,6.3E1,4.7E1,5.9E1,1.153E3,6E0,4E0,1E0,1E0,2E0,1E0],"tree_param":{"num_deleted":"0","num_feature":"4","num_nodes":"117","size_leaf_vector":"1"}},{"base_weights":[1.00968756E-1,5.358988E-1,-1.0989627E0,3.3272174E-1,7.6679463E0,-1.3679919E0,2.8593109E0,9.772077E-1,-1.1171473E0,1.32457E0,5.0320168E1,-1.0474935E0,-4.5670853E0,4.233674E0,1.8823507E0,2.4202898E0,7.11183E-2,1.1908246E-3,-2.757655E0,5.7437224E0,-2.835488E0,6.975298E0,5.306014E1,-3.2391E0,-5.0164956E-1,-3.0002737E0,-1.0007587E1,-2.6544771E0,2.7745264E0,1.6092105E0,6.955108E0,-8.897072E-2,5.8570924E0,-2.5092056E-1,1.2386014E1,-3.558043E0,1.072456E-2,8.509747E0,-1.8893037E0,-4.161987E0,6.4956264E0,-5.1226487E0,1.732942E1,-1.7995738E0,-5.9007206E0,1.2482566E0,-1.5431362E0,-5.5129857E0,4.7502026E-1,-1.4488249E1,-4.275978E0,1.9269822E0,1.1191996E1,6.5400434E-1,-1.5362107E0,1.3459292E1,1.8011066E0,8.84791E-3,-1.9996657E0,2.677615E0,5.367989E-1,-2.1811478E-1,1.0626508E0,1.3770864E0,5.710251E0,-1.6954566E0,-8.1247854E-1,-6.142224E-1,1.8167456E0,-4.4218686E-1,3.5807736E0,-1.9121791E0,6.228775E-1,6.371112E-2,-2.215202E0,5.269731E0,-9.1490334E-1,-2.539438E0,7.3556757E-1,6.711345E0,2.4575384E0,-7.5485295E-1,1.5027148E0,1.1009485E-1,-2.400045E0,3.2746646E0,2.1146417E-1,3.1535718E0,-5.353976E-1,-2.4295884E-1,-2.6064863E0,-2.2683392E-1,4.318663E0,-2.2483184E0,-5.8825517E0,2.781704E-1,-1.545527E0,2.9085013E-1,2.702983E0,4.663885E0,-2.8062975E-1],"categories":[],"categories_nodes":[],"categories_segments":[],"categories_sizes":[],"default_left":[0,0,0,0,0,0,0,0,0,0,0,0,0,0,0,0,0,0,0,0,0,0,0,0,0,0,0,0,0,0,0,0,0,0,0,0,0,0,0,0,0,0,0,0,0,0,0,0,0,0,0,0,0,0,0,0,0,0,0,0,0,0,0,0,0,0,0,0,0,0,0,0,0,0,0,0,0,0,0,0,0,0,0,0,0,0,0,0,0,0,0,0,0,0,0,0,0,0,0,0,0],"id":7,"left_children":[1,3,5,7,9,11,13,15,17,19,21,23,25,-1,27,29,31,33,35,37,39,41,-1,43,45,47,49,-1,51,53,55,57,59,61,63,65,67,69,71,73,75,77,79,81,83,85,87,89,91,93,95,97,99,-1,-1,-1,-1,-1,-1,-1,-1,-1,-1,-1,-1,-1,-1,-1,-1,-1,-1,-1,-1,-1,-1,-1,-1,-1,-1,-1,-1,-1,-1,-1,-1,-1,-1,-1,-1,-1,-1,-1,-1,-1,-1,-1,-1,-1,-1,-1,-1],"loss_changes":[1.5928639E3,3.2433623E3,8.6860333E2,2.0371935E3,1.670801E4,7.7547253E2,5.4510657E2,1.9729382E3,1.2310481E3,1.0274025E3,4.264759E4,8.2739374E2,5.581471E2,0E0,4.9365558E2,2.1294607E3,8.601005E2,1.2520498E3,6.0272974E2,5.861321E2,3.859884E2,9.656178E2,0E0,5.181244E2,1.0152384E3,4.829015E2,3.2326953E2,0E0,3.0660538E2,1.9126859E3,2.9045933E3,7.044908E2,2.960564E2,7.123328E2,3.2724524E2,3.60063E2,7.8377814E2,7.017092E2,1.5550644E2,3.6801907E2,4.7624146E2,1.2201557E2,1.0179443E0,4.565998E2,6.3454846E2,1.0849247E3,1.034895E3,4.7084637E2,4.221971E2,1.3952869E2,4.1231766E1,2.8288254E2,2.2576773E2,0E0,0E0,0E0,0E0,0E0,0E0,0E0,0E0,0E0,0E0,0E0,0E0,0E0,0E0,0E0,0E0,0E0,0E0,0E0,0E0,0E0,0E0,0E0,0E0,0E0,0E0,0E0,0E0,0E0,0E0,0E0,0E0,0E0,0E0,0E0,0E0,0E0,0E0,0E0,0E0,0E0,0E0,0E0,0E0,0E0,0E0,0E0,0E0],"parents":[2147483647,0,0,1,1,2,2,3,3,4,4,5,5,6,6,7,7,8,8,9,9,10,10,11,11,12,12,14,14,15,15,16,16,17,17,18,18,19,19,20,20,21,21,23,23,24,24,25,25,26,26,28,28,29,29,30,30,31,31,32,32,33,33,34,34,35,35,36,36,37,37,38,38,39,39,40,40,41,41,42,42,43,43,44,44,45,45,46,46,47,47,48,48,49,49,50,50,51,51,52,52],"right_children":[2,4,6,8,10,12,14,16,18,20,22,24,26,-1,28,30,32,34,36,38,40,42,-1,44,46,48,50,-1,52,54,56,58,60,62,64,66,68,70,72,74,76,78,80,82,84,86,88,90,92,94,96,98,100,-1,-1,-1,-1,-1,-1,-1,-1,-1,-1,-1,-1,-1,-1,-1,-1,-1,-1,-1,-1,-1,-1,-1,-1,-1,-1,-1,-1,-1,-1,-1,-1,-1,-1,-1,-1,-1,-1,-1,-1,-1,-1,-1,-1,-1,-1,-1,-1],"split_conditions":[2.6124195E1,2.5460936E1,1.7005083E1,2.4290695E2,2.9393533E2,2.8784482E2,1.12036285E2,8.372E0,1.9272614E1,1.0461335E1,1.3036332E1,1.9272768E2,1.2536334E1,4.233674E0,2.0014761E2,7.217583E0,2.3780334E1,1.9164719E1,1.6227997E1,2.1895067E2,7.9E0,3.1636383E2,5.306014E1,1.7540417E2,2.3000002E0,2.9986076E1,1.45095E1,-2.6544771E0,2.01905E1,6.786333E0,6.3819695E0,1.3500001E1,1.0239759E2,3.4326575E2,2E-1,2.0870687E1,2.7E0,2.5630886E1,2.415166E2,1.3517583E1,8.099999E0,2.600486E1,2.5630886E1,1.7092131E2,2.7438046E1,3.7884166E0,1.9492334E2,9.0000004E-1,1.1299999E1,1.3663418E1,2.9211725E2,2.6423743E2,2.0669668E1,6.5400434E-1,-1.5362107E0,1.3459292E1,1.8011066E0,8.84791E-3,-1.9996657E0,2.677615E0,5.367989E-1,-2.1811478E-1,1.0626508E0,1.3770864E0,5.710251E0,-1.6954566E0,-8.1247854E-1,-6.142224E-1,1.8167456E0,-4.4218686E-1,3.5807736E0,-1.9121791E0,6.228775E-1,6.371112E-2,-2.215202E0,5.269731E0,-9.1490334E-1,-2.539438E0,7.3556757E-1,6.711345E0,2.4575384E0,-7.5485295E-1,1.5027148E0,1.1009485E-1,-2.400045E0,3.2746646E0,2.1146417E-1,3.1535718E0,-5.353976E-1,-2.4295884E-1,-2.6064863E0,-2.2683392E-1,4.318663E0,-2.2483184E0,-5.8825517E0,2.781704E-1,-1.545527E0,2.9085013E-1,2.702983E0,4.663885E0,-2.8062975E-1],"split_indices":[2,2,0,3,3,3,3,0,2,0,0,3,0,0,3,0,0,2,0,3,1,3,0,3,1,2,0,0,0,0,3,1,3,3,1,2,1,2,3,0,1,2,2,3,2,0,3,1,1,0,3,3,0,0,0,0,0,0,0,0,0,0,0,0,0,0,0,0,0,0,0,0,0,0,0,0,0,0,0,0,0,0,0,0,0,0,0,0,0,0,0,0,0,0,0,0,0,0,0,0,0],"split_type":[0,0,0,0,0,0,0,0,0,0,0,0,0,0,0,0,0,0,0,0,0,0,0,0,0,0,0,0,0,0,0,0,0,0,0,0,0,0,0,0,0,0,0,0,0,0,0,0,0,0,0,0,0,0,0,0,0,0,0,0,0,0,0,0,0,0,0,0,0,0,0,0,0,0,0,0,0,0,0,0,0,0,0,0,0,0,0,0,0,0,0,0,0,0,0,0,0,0,0,0,0],"sum_hessian":[3.05E3,2.239E3,8.11E2,2.178E3,6.1E1,7.6E2,5.1E1,1.508E3,6.7E2,5.4E1,7E0,6.92E2,6.8E1,3E0,4.8E1,5.81E2,9.27E2,3.99E2,2.71E2,2.6E1,2.8E1,6E0,1E0,1.37E2,5.55E2,5.4E1,1.4E1,3E0,4.5E1,4.94E2,8.7E1,9.03E2,2.4E1,3.92E2,7E0,2.1E2,6.1E1,1.9E1,7E0,2.5E1,3E0,3E0,3E0,9E1,4.7E1,2.07E2,3.48E2,3.1E1,2.3E1,7E0,7E0,4.2E1,3E0,4.56E2,3.8E1,1E0,8.6E1,8.88E2,1.5E1,1.3E1,1.1E1,3.49E2,4.3E1,4E0,3E0,5.9E1,1.51E2,4.6E1,1.5E1,5E0,1.4E1,3E0,4E0,1.1E1,1.4E1,1E0,2E0,2E0,1E0,1E0,2E0,8.2E1,8E0,1.2E1,3.5E1,1E1,1.97E2,6E0,3.42E2,1.3E1,1.8E1,2.2E1,1E0,4E0,3E0,1E0,6E0,3.8E1,4E0,2E0,1E0],"tree_param":{"num_deleted":"0","num_feature":"4","num_nodes":"101","size_leaf_vector":"1"}},{"base_weights":[1.0085504E-1,3.1710994E0,3.792816E-5,5.8070934E-1,1.148015E1,8.5913867E-1,-3.3648366E-1,7.91202E0,-4.482654E0,1.5176662E1,-9.872451E0,7.617958E0,7.257234E-1,-2.832141E0,-2.513097E-1,4.8185525E0,1.9998379E1,-5.738361E0,4.5030084E0,2.6855602E1,3.179749E0,-3.7064257E0,-3.638323E-1,-1.0124512E0,1.8858835E1,1.5134467E0,-7.15248E-2,-5.3549747E0,8.641436E0,-9.026623E-2,-1.5102407E0,1.51402025E1,9.6504724E-1,-3.449329E0,2.8597158E1,-3.478701E0,-1.686251E1,-2.371436E0,3.1596176E1,-3.0683277E0,1.1291107E1,-8.852626E0,8.5982485E0,-3.705865E0,2.61196E1,-2.7049005E0,2.2281837E0,-1.1764095E0,2.1387706E0,-8.84323E0,-2.244416E0,-4.036995E0,1.4724849E1,-1.4309107E-1,1.1912256E1,-4.5735903E0,-3.23093E-1,1.8462536E0,7.521053E0,-4.3127074E0,1.3553596E0,1.0271647E1,9.0457654E-1,-2.2149694E0,-1.4427614E-1,-5.9091454E0,2.1799851E-2,1.0544664E1,4.7618353E-1,-2.5214787E0,9.1060644E-1,-2.9195502E-1,5.9375086E0,-5.9232754E-1,-3.539436E0,4.796563E0,8.260618E-1,1.3520446E1,1.6134871E0,9.934582E-1,-2.1290894E0,1.3609183E0,1.992692E-1,-2.472754E0,-2.1077421E-1,2.4555082E0,2.890492E-1,-6.579524E-1,-3.191643E0,1.8926968E-1,-2.3373024E0,-1.864634E0,7.015217E-1,5.9978085E0,9.4256E-1,8.361856E-2,-3.0405587E-1,9.503799E0,1.3688312E0,-2.140131E0,2.2639768E-1,7.706185E0,-1.8924515E-1],"categories":[],"categories_nodes":[],"categories_segments":[],"categories_sizes":[],"default_left":[0,0,0,0,0,0,0,0,0,0,0,0,0,0,0,0,0,0,0,0,0,0,0,0,0,0,0,0,0,0,0,0,0,0,0,0,0,0,0,0,0,0,0,0,0,0,0,0,0,0,0,0,0,0,0,0,0,0,0,0,0,0,0,0,0,0,0,0,0,0,0,0,0,0,0,0,0,0,0,0,0,0,0,0,0,0,0,0,0,0,0,0,0,0,0,0,0,0,0,0,0,0,0],"id":8,"left_children":[1,3,5,7,9,11,13,15,17,19,21,23,25,27,29,31,33,35,-1,37,39,-1,-1,41,43,45,47,49,51,53,55,57,59,-1,61,63,65,-1,67,69,71,73,75,-1,77,79,81,83,85,87,89,91,93,95,97,99,101,-1,-1,-1,-1,-1,-1,-1,-1,-1,-1,-1,-1,-1,-1,-1,-1,-1,-1,-1,-1,-1,-1,-1,-1,-1,-1,-1,-1,-1,-1,-1,-1,-1,-1,-1,-1,-1,-1,-1,-1,-1,-1,-1,-1,-1,-1],"loss_changes":[9.443856E2,2.0811306E3,8.545971E2,2.8195488E3,1.9652249E3,7.447104E2,4.5077637E2,1.0626885E3,1.187602E3,2.71683E3,7.100018E1,1.5713076E3,5.1319324E2,2.0724893E3,4.164997E2,1.0195269E3,1.9537739E3,1.0222224E3,0E0,1.8976035E3,5.92129E2,0E0,0E0,8.296127E2,1.9089993E3,1.2451956E3,9.964594E2,6.094767E2,1.0621099E3,1.1575438E3,8.458614E2,4.7033044E2,1.1550044E3,0E0,6.1838354E2,4.2953143E2,3.3746704E2,0E0,9.0372363E2,2.5352232E2,5.405294E2,9.826367E1,1.7194556E2,0E0,2.1157168E3,1.6089736E3,1.267683E3,9.048985E2,9.5853015E2,2.9906592E2,5.152576E2,8.397674E1,4.8634204E2,6.6705194E2,1.01767725E3,8.9206616E2,1.3688835E3,0E0,0E0,0E0,0E0,0E0,0E0,0E0,0E0,0E0,0E0,0E0,0E0,0E0,0E0,0E0,0E0,0E0,0E0,0E0,0E0,0E0,0E0,0E0,0E0,0E0,0E0,0E0,0E0,0E0,0E0,0E0,0E0,0E0,0E0,0E0,0E0,0E0,0E0,0E0,0E0,0E0,0E0,0E0,0E0,0E0,0E0],"parents":[2147483647,0,0,1,1,2,2,3,3,4,4,5,5,6,6,7,7,8,8,9,9,10,10,11,11,12,12,13,13,14,14,15,15,16,16,17,17,19,19,20,20,23,23,24,24,25,25,26,26,27,27,28,28,29,29,30,30,31,31,32,32,34,34,35,35,36,36,38,38,39,39,40,40,41,41,42,42,44,44,45,45,46,46,47,47,48,48,49,49,50,50,51,51,52,52,53,53,54,54,55,55,56,56],"right_children":[2,4,6,8,10,12,14,16,18,20,22,24,26,28,30,32,34,36,-1,38,40,-1,-1,42,44,46,48,50,52,54,56,58,60,-1,62,64,66,-1,68,70,72,74,76,-1,78,80,82,84,86,88,90,92,94,96,98,100,102,-1,-1,-1,-1,-1,-1,-1,-1,-1,-1,-1,-1,-1,-1,-1,-1,-1,-1,-1,-1,-1,-1,-1,-1,-1,-1,-1,-1,-1,-1,-1,-1,-1,-1,-1,-1,-1,-1,-1,-1,-1,-1,-1,-1,-1,-1],"split_conditions":[3.5533336E-1,2E-1,1.6575644E1,1.4113652E1,2.9122198E1,6.3819695E0,2.5800224E1,1.3084402E1,3.3425762E1,9.5172844E1,3.4E0,4.763556E0,1.189075E1,1.7319668E1,8.300001E0,9.422101E0,-3.2740831E0,1E-1,4.5030084E0,8.350138E0,1.7540417E2,-3.7064257E0,-3.638323E-1,3E-1,9.422101E0,6.271331E1,1.8449083E1,2.0211363E1,1.8581022E1,8.2E0,2.0300734E2,8.78872E0,9.826088E0,-3.449329E0,1.5554881E2,-1.5199165E0,2.259699E1,-2.371436E0,2.2427162E1,1.7227419E1,8E-1,1.2979984E1,4E-1,-3.705865E0,7.373833E0,3.722142E1,1.7720735E2,2.4232231E1,8.143477E1,4.4990835E0,1.8735035E1,1E-1,9.000001E-1,1.3730083E1,4.672E0,1.1725915E1,2.0371701E2,1.8462536E0,7.521053E0,-4.3127074E0,1.3553596E0,1.0271647E1,9.0457654E-1,-2.2149694E0,-1.4427614E-1,-5.9091454E0,2.1799851E-2,1.0544664E1,4.7618353E-1,-2.5214787E0,9.1060644E-1,-2.9195502E-1,5.9375086E0,-5.9232754E-1,-3.539436E0,4.796563E0,8.260618E-1,1.3520446E1,1.6134871E0,9.934582E-1,-2.1290894E0,1.3609183E0,1.992692E-1,-2.472754E0,-2.1077421E-1,2.4555082E0,2.890492E-1,-6.579524E-1,-3.191643E0,1.8926968E-1,-2.3373024E0,-1.864634E0,7.015217E-1,5.9978085E0,9.4256E-1,8.361856E-2,-3.0405587E-1,9.503799E0,1.3688312E0,-2.140131E0,2.2639768E-1,7.706185E0,-1.8924515E-1],"split_indices":[0,1,2,2,2,3,3,2,2,3,1,3,0,0,1,2,0,1,0,2,3,0,0,1,2,3,0,2,2,1,3,2,2,0,3,0,2,0,2,2,1,2,1,0,0,3,3,3,3,0,3,1,1,0,0,0,3,0,0,0,0,0,0,0,0,0,0,0,0,0,0,0,0,0,0,0,0,0,0,0,0,0,0,0,0,0,0,0,0,0,0,0,0,0,0,0,0,0,0,0,0,0,0],"split_type":[0,0,0,0,0,0,0,0,0,0,0,0,0,0,0,0,0,0,0,0,0,0,0,0,0,0,0,0,0,0,0,0,0,0,0,0,0,0,0,0,0,0,0,0,0,0,0,0,0,0,0,0,0,0,0,0,0,0,0,0,0,0,0,0,0,0,0,0,0,0,0,0,0,0,0,0,0,0,0,0,0,0,0,0,0,0,0,0,0,0,0,0,0,0,0,0,0,0,0,0,0,0,0],"sum_hessian":[3.05E3,9.6E1,2.954E3,7.4E1,2.2E1,8.31E2,2.123E3,3E1,4.4E1,1.9E1,3E0,1.5E1,8.16E2,6.9E1,2.054E3,2.5E1,5E0,4.2E1,2E0,9E0,1E1,2E0,1E0,9E0,6E0,4.1E2,4.06E2,5.7E1,1.2E1,1.822E3,2.32E2,6E0,1.9E1,1E0,4E0,3.6E1,6E0,1E0,8E0,6E0,4E0,5E0,4E0,1E0,5E0,5.9E1,3.51E2,2.71E2,1.35E2,2.6E1,3.1E1,4E0,8E0,1.815E3,7E0,6.4E1,1.68E2,4E0,2E0,3E0,1.6E1,3E0,1E0,1.5E1,2.1E1,5E0,1E0,7E0,1E0,3E0,3E0,2E0,2E0,2E0,3E0,1E0,3E0,2E0,3E0,2.5E1,3.4E1,1.41E2,2.1E2,1.6E1,2.55E2,2.1E1,1.14E2,6E0,2E1,2.1E1,1E1,3E0,1E0,5E0,3E0,1.223E3,5.92E2,1E0,6E0,4.3E1,2.1E1,1E0,1.67E2],"tree_param":{"num_deleted":"0","num_feature":"4","num_nodes":"103","size_leaf_vector":"1"}},{"base_weights":[8.647738E-2,3.6243072E-1,-6.748798E-1,1.8978167E-1,6.4243646E0,9.498751E0,-7.3700017E-1,3.850043E-1,-2.865188E0,1.0255452E0,4.27382E1,3.3759918E0,3.720795E-1,-9.24494E-1,2.0641246E0,2.5688398E-1,3.3790474E0,-4.4682956E0,-7.055691E-1,4.2874026E0,-1.6380672E0,5.902161E0,4.5088573E1,-2.2202685E-1,-1.7692597E0,-2.1776143E-1,3.4257996E0,3.2015812E-1,-4.4766555E0,1.3536806E1,-2.2174211E-1,-4.7921176E0,-3.9342604E0,1.4264788E1,-2.1045542E0,1.6165764E0,1.4647393E1,-3.3869488E0,-2.0074163E-1,-4.099535E0,1.4428316E1,-5.4284234E0,-4.015725E-2,-2.1153996E0,7.0291454E-1,3.244078E0,-3.3450916E0,2.3902135E0,3.7919185E0,2.116673E-1,-1.9017494E-1,-1.893969E0,3.5124474E0,1.7974188E0,8.654889E0,1.3184859E0,-6.0703635E-1,-9.8769397E-1,-3.601884E0,1.0414215E0,6.0909724E0,5.3863807E0,-8.506764E-1,-2.5015944E-1,3.6718256E0,6.526611E0,2.2294672E0,1.4428996E0,-1.1177073E0,-2.048274E0,6.126898E-1,5.6921005E0,1.9765933E0,-3.2307627E0,-8.978481E-1,-3.1017643E-1,2.675069E-1,-4.5943964E-1,-1.4489678E0,-1.0035541E0,1.7977078E0,2.4347167E0,-4.0689155E-1,2.0331821E0,-1.5105166E0,9.7274834E-1,-7.5590706E-1],"categories":[],"categories_nodes":[],"categories_segments":[],"categories_sizes":[],"default_left":[0,0,0,0,0,0,0,0,0,0,0,0,0,0,0,0,0,0,0,0,0,0,0,0,0,0,0,0,0,0,0,0,0,0,0,0,0,0,0,0,0,0,0,0,0,0,0,0,0,0,0,0,0,0,0,0,0,0,0,0,0,0,0,0,0,0,0,0,0,0,0,0,0,0,0,0,0,0,0,0,0,0,0,0,0,0,0],"id":9,"left_children":[1,3,5,7,9,11,13,15,17,19,21,-1,-1,23,25,27,29,31,33,35,37,39,-1,41,43,45,47,49,51,53,55,-1,57,59,61,63,65,-1,67,69,71,73,75,77,79,81,83,85,-1,-1,-1,-1,-1,-1,-1,-1,-1,-1,-1,-1,-1,-1,-1,-1,-1,-1,-1,-1,-1,-1,-1,-1,-1,-1,-1,-1,-1,-1,-1,-1,-1,-1,-1,-1,-1,-1,-1],"loss_changes":[6.4125684E2,2.343136E3,5.2017633E2,1.3006572E3,1.2111384E4,5.8492767E1,4.2626483E2,7.851239E2,4.503827E2,4.8488095E2,3.0808738E4,0E0,0E0,4.4941962E2,1.5921254E2,5.902714E2,3.0753818E3,3.9797815E2,1.2237894E3,6.6806476E2,4.2778818E2,6.560815E2,0E0,3.9273944E2,2.9585388E2,2.2737804E2,2.7512646E2,7.1415265E2,8.467561E2,2.3690642E3,5.329242E2,0E0,3.3874365E2,2.5539587E2,8.280996E2,5.568496E2,9.477368E1,0E0,5.124394E2,8.096474E1,1.7525513E1,1.4988156E2,3.7318842E2,4.7129895E2,9.407689E2,2.3512167E2,2.2229466E2,1.3370862E2,0E0,0E0,0E0,0E0,0E0,0E0,0E0,0E0,0E0,0E0,0E0,0E0,0E0,0E0,0E0,0E0,0E0,0E0,0E0,0E0,0E0,0E0,0E0,0E0,0E0,0E0,0E0,0E0,0E0,0E0,0E0,0E0,0E0,0E0,0E0,0E0,0E0,0E0,0E0],"parents":[2147483647,0,0,1,1,2,2,3,3,4,4,5,5,6,6,7,7,8,8,9,9,10,10,13,13,14,14,15,15,16,16,17,17,18,18,19,19,20,20,21,21,23,23,24,24,25,25,26,26,27,27,28,28,29,29,30,30,32,32,33,33,34,34,35,35,36,36,38,38,39,39,40,40,41,41,42,42,43,43,44,44,45,45,46,46,47,47],"right_children":[2,4,6,8,10,12,14,16,18,20,22,-1,-1,24,26,28,30,32,34,36,38,40,-1,42,44,46,48,50,52,54,56,-1,58,60,62,64,66,-1,68,70,72,74,76,78,80,82,84,86,-1,-1,-1,-1,-1,-1,-1,-1,-1,-1,-1,-1,-1,-1,-1,-1,-1,-1,-1,-1,-1,-1,-1,-1,-1,-1,-1,-1,-1,-1,-1,-1,-1,-1,-1,-1,-1,-1,-1],"split_conditions":[2.6124195E1,2.5460936E1,4.763556E0,2.4192429E1,2.9393533E2,1.2E0,1.7005083E1,2.3469128E1,8E-1,9.138417E0,1.3036332E1,3.3759918E0,3.720795E-1,9.07175E0,1.4000002E0,2.3277834E1,1.576512E2,6.5508336E-1,2.907417E0,8.509251E0,1.5986359E2,3.1636383E2,4.5088573E1,2.6405453E1,3.9468872E1,1.8449083E1,2.01905E1,2.4756691E2,3.4E0,8.001263E1,2.3675303E1,-4.7921176E0,7E-1,1.2E0,7.797911E1,2.600486E1,8.678E0,-3.3869488E0,2.5809765E1,2.600486E1,2.5630886E1,5.949607E1,6.638417E0,3.4860565E1,2.3445663E2,2.236697E2,6.961934E1,1.2099999E1,3.7919185E0,2.116673E-1,-1.9017494E-1,-1.893969E0,3.5124474E0,1.7974188E0,8.654889E0,1.3184859E0,-6.0703635E-1,-9.8769397E-1,-3.601884E0,1.0414215E0,6.0909724E0,5.3863807E0,-8.506764E-1,-2.5015944E-1,3.6718256E0,6.526611E0,2.2294672E0,1.4428996E0,-1.1177073E0,-2.048274E0,6.126898E-1,5.6921005E0,1.9765933E0,-3.2307627E0,-8.978481E-1,-3.1017643E-1,2.675069E-1,-4.5943964E-1,-1.4489678E0,-1.0035541E0,1.7977078E0,2.4347167E0,-4.0689155E-1,2.0331821E0,-1.5105166E0,9.7274834E-1,-7.5590706E-1],"split_indices":[2,2,3,2,3,1,0,2,1,0,0,0,0,0,1,2,3,0,0,0,3,3,0,2,2,0,0,3,1,3,2,0,1,1,3,2,0,0,2,2,2,3,0,2,3,3,3,1,0,0,0,0,0,0,0,0,0,0,0,0,0,0,0,0,0,0,0,0,0,0,0,0,0,0,0,0,0,0,0,0,0,0,0,0,0,0,0],"split_type":[0,0,0,0,0,0,0,0,0,0,0,0,0,0,0,0,0,0,0,0,0,0,0,0,0,0,0,0,0,0,0,0,0,0,0,0,0,0,0,0,0,0,0,0,0,0,0,0,0,0,0,0,0,0,0,0,0,0,0,0,0,0,0,0,0,0,0,0,0,0,0,0,0,0,0,0,0,0,0,0,0,0,0,0,0,0,0],"sum_hessian":[3.05E3,2.239E3,8.11E2,2.178E3,6.1E1,4E0,8.07E2,2.048E3,1.3E2,5.4E1,7E0,3E0,1E0,7.57E2,5E1,1.965E3,8.3E1,7.4E1,5.6E1,2.4E1,3E1,6E0,1E0,4.14E2,3.43E2,1.9E1,3.1E1,1.94E3,2.5E1,2.1E1,6.2E1,2E0,7.2E1,4E0,5.2E1,2E1,4E0,3E0,2.7E1,3E0,3E0,1.3E1,4.01E2,3.01E2,4.2E1,9E0,1E1,2.9E1,2E0,1.382E3,5.58E2,2.3E1,2E0,1.5E1,6E0,1.7E1,4.5E1,6.8E1,4E0,2E0,2E0,1E0,5.1E1,1.7E1,3E0,1E0,3E0,1.1E1,1.6E1,2E0,1E0,1E0,2E0,3E0,1E1,1.94E2,2.07E2,2.49E2,5.2E1,2.4E1,1.8E1,4E0,5E0,1E0,9E0,2.5E1,4E0],"tree_param":{"num_deleted":"0","num_feature":"4","num_nodes":"87","size_leaf_vector":"1"}},{"base_weights":[8.693536E-2,2.1864572E0,1.7987635E-2,4.5135432E-1,7.749337E0,-1.6522717E-2,3.9063468E0,5.7896004E0,-3.236134E0,1.0450868E1,-7.695648E0,-7.267595E-2,2.151671E0,-2.0867953E0,4.6190796E0,1.8316402E1,3.7932856E0,-7.086835E0,1.5021349E0,1.9519543E1,1.256538E0,-2.9031053E0,-2.627312E-1,7.517895E-4,-5.669081E0,-5.080469E-1,7.3850393E0,7.0643296E0,1.8185155E0,8.254256E0,7.2754273E0,-2.6687937E0,8.1316185E0,-4.9219093E0,-1.4762155E1,-3.560909E0,7.427574E0,-2.0474706E0,2.3205027E1,-3.574053E0,7.768058E0,-3.448355E-2,7.6142373E0,-7.2121577E0,3.5055075E0,5.4832582E0,-3.7606363E0,1.7562875E0,1.3336496E1,3.6159604E0,3.5575585E0,-2.0209475E0,8.365846E0,3.0155985E0,6.988169E-1,-1.5850227E0,3.913796E0,4.9558716E0,1.5462694E0,-7.3510087E-1,-3.2077358E0,-5.1424694E0,-7.866778E-1,8.0778825E-1,-3.8563159E0,4.053907E0,1.2651254E0,7.7211266E0,4.4227985E-1,1.799774E0,-1.8508433E0,-2.3571359E-1,4.119743E0,2.3843763E-2,-4.8173657E-1,8.141035E0,-1.223294E0,-1.0762852E0,-2.6819663E0,3.0608191E0,-1.9777875E0,3.0447876E0,-4.8538342E-1,-1.9863287E0,1.3808796E0,2.133087E0,-9.444E-1,6.051116E0,9.422631E-1,3.2584912E-1,2.49405E0,8.606026E-1,-1.148338E0,2.960814E0,3.5275614E-1],"categories":[],"categories_nodes":[],"categories_segments":[],"categories_sizes":[],"default_left":[0,0,0,0,0,0,0,0,0,0,0,0,0,0,0,0,0,0,0,0,0,0,0,0,0,0,0,0,0,0,0,0,0,0,0,0,0,0,0,0,0,0,0,0,0,0,0,0,0,0,0,0,0,0,0,0,0,0,0,0,0,0,0,0,0,0,0,0,0,0,0,0,0,0,0,0,0,0,0,0,0,0,0,0,0,0,0,0,0,0,0,0,0,0,0],"id":10,"left_children":[1,3,5,7,9,11,13,15,17,19,21,23,25,-1,27,29,31,33,35,37,39,-1,-1,41,43,45,47,49,51,53,-1,55,57,59,61,63,65,-1,67,69,71,73,75,77,79,81,83,85,87,89,-1,91,93,-1,-1,-1,-1,-1,-1,-1,-1,-1,-1,-1,-1,-1,-1,-1,-1,-1,-1,-1,-1,-1,-1,-1,-1,-1,-1,-1,-1,-1,-1,-1,-1,-1,-1,-1,-1,-1,-1,-1,-1,-1,-1],"loss_changes":[4.4161505E2,9.327627E2,3.9659198E2,1.49509E3,1.0401034E3,3.5688705E2,2.3342062E2,7.0575134E2,8.316998E2,1.6430808E3,4.5575928E1,1.1740353E3,1.033779E3,0E0,1.5835535E2,3.869873E1,8.066718E2,3.4275452E2,6.564649E2,1.1292922E3,3.7376285E2,0E0,0E0,7.5703455E2,5.490946E2,9.9498334E2,8.140591E2,1.7203815E2,3.4370392E2,8.539078E0,0E0,5.619845E2,3.3941553E2,2.7330856E2,9.9479126E1,7.3201715E2,1.3838708E2,0E0,4.5726904E2,2.1093964E2,2.6588104E2,5.0313593E2,3.0779731E3,1.6831824E2,4.7303937E2,6.128412E2,8.199568E2,3.899891E2,7.7275635E2,9.7924545E1,0E0,9.0493835E1,4.2447052E1,0E0,0E0,0E0,0E0,0E0,0E0,0E0,0E0,0E0,0E0,0E0,0E0,0E0,0E0,0E0,0E0,0E0,0E0,0E0,0E0,0E0,0E0,0E0,0E0,0E0,0E0,0E0,0E0,0E0,0E0,0E0,0E0,0E0,0E0,0E0,0E0,0E0,0E0,0E0,0E0,0E0,0E0],"parents":[2147483647,0,0,1,1,2,2,3,3,4,4,5,5,6,6,7,7,8,8,9,9,10,10,11,11,12,12,14,14,15,15,16,16,17,17,18,18,19,19,20,20,23,23,24,24,25,25,26,26,27,27,28,28,29,29,31,31,32,32,33,33,34,34,35,35,36,36,38,38,39,39,40,40,41,41,42,42,43,43,44,44,45,45,46,46,47,47,48,48,49,49,51,51,52,52],"right_children":[2,4,6,8,10,12,14,16,18,20,22,24,26,-1,28,30,32,34,36,38,40,-1,-1,42,44,46,48,50,52,54,-1,56,58,60,62,64,66,-1,68,70,72,74,76,78,80,82,84,86,88,90,-1,92,94,-1,-1,-1,-1,-1,-1,-1,-1,-1,-1,-1,-1,-1,-1,-1,-1,-1,-1,-1,-1,-1,-1,-1,-1,-1,-1,-1,-1,-1,-1,-1,-1,-1,-1,-1,-1,-1,-1,-1,-1,-1,-1],"split_conditions":[3.5533336E-1,2E-1,2.3780334E1,1.4113652E1,2.9122198E1,3.4326575E2,3.722142E1,4.7559334E1,2.0172853E1,9.5172844E1,3.4E0,3.3708218E2,1.437175E1,-2.0867953E0,1.0239759E2,-3.8666744E-2,1.23172195E2,1E-1,7.797911E1,8.350138E0,1.7540417E2,-2.9031053E0,-2.627312E-1,3.3467712E2,2.4315327E1,3.491957E2,7E-1,8.891675E1,1.4323956E2,-5.5950004E-1,7.2754273E0,-5.5950004E-1,9.422101E0,1.7283749E1,1.9164719E1,6.739957E1,8.269839E1,-2.0474706E0,2.2427162E1,4E-1,8E-1,3.05843E2,6.7134166E0,1.503835E1,6.3113327E0,1.8998316E1,1.1E0,1E-1,2.0211363E1,1.7447933E1,3.5575585E0,1.3363711E1,2.4707167E1,3.0155985E0,6.988169E-1,-1.5850227E0,3.913796E0,4.9558716E0,1.5462694E0,-7.3510087E-1,-3.2077358E0,-5.1424694E0,-7.866778E-1,8.0778825E-1,-3.8563159E0,4.053907E0,1.2651254E0,7.7211266E0,4.4227985E-1,1.799774E0,-1.8508433E0,-2.3571359E-1,4.119743E0,2.3843763E-2,-4.8173657E-1,8.141035E0,-1.223294E0,-1.0762852E0,-2.6819663E0,3.0608191E0,-1.9777875E0,3.0447876E0,-4.8538342E-1,-1.9863287E0,1.3808796E0,2.133087E0,-9.444E-1,6.051116E0,9.422631E-1,3.2584912E-1,2.49405E0,8.606026E-1,-1.148338E0,2.960814E0,3.5275614E-1],"split_indices":[0,1,0,2,2,3,3,3,2,3,1,3,0,0,3,0,3,1,3,2,3,0,0,3,2,3,1,3,3,0,0,0,2,2,2,3,3,0,2,1,1,3,0,2,0,2,1,1,2,2,0,2,0,0,0,0,0,0,0,0,0,0,0,0,0,0,0,0,0,0,0,0,0,0,0,0,0,0,0,0,0,0,0,0,0,0,0,0,0,0,0,0,0,0,0],"split_type":[0,0,0,0,0,0,0,0,0,0,0,0,0,0,0,0,0,0,0,0,0,0,0,0,0,0,0,0,0,0,0,0,0,0,0,0,0,0,0,0,0,0,0,0,0,0,0,0,0,0,0,0,0,0,0,0,0,0,0,0,0,0,0,0,0,0,0,0,0,0,0,0,0,0,0,0,0,0,0,0,0,0,0,0,0,0,0,0,0,0,0,0,0,0,0],"sum_hessian":[3.05E3,9.6E1,2.954E3,7.4E1,2.2E1,2.929E3,2.5E1,3E1,4.4E1,1.9E1,3E0,2.856E3,7.3E1,1E0,2.4E1,3E0,2.7E1,2.4E1,2E1,9E0,1E1,2E0,1E0,2.82E3,3.6E1,4.9E1,2.4E1,1.2E1,1.2E1,2E0,1E0,1.1E1,1.6E1,2E1,4E0,1.1E1,9E0,1E0,8E0,6E0,4E0,2.808E3,1.2E1,3.1E1,5E0,1.7E1,3.2E1,1.3E1,1.1E1,8E0,4E0,8E0,4E0,1E0,1E0,1E1,1E0,3E0,1.3E1,1.5E1,5E0,3E0,1E0,7E0,4E0,2E0,7E0,7E0,1E0,1E0,5E0,2E0,2E0,2.619E3,1.89E2,4E0,8E0,1.1E1,2E1,3E0,2E0,1E1,7E0,2.4E1,8E0,6E0,7E0,6E0,5E0,6E0,2E0,2E0,6E0,3E0,1E0],"tree_param":{"num_deleted":"0","num_feature":"4","num_nodes":"95","size_leaf_vector":"1"}},{"base_weights":[7.4044764E-2,1.1021966E0,-4.7251552E-2,-1.4462876E0,2.9263625E0,-3.3712056E0,1.3494533E-2,5.5872536E0,-2.790951E0,4.0189166E0,-2.9617205E0,-5.394854E0,6.2222157E0,1.419454E-1,-1.231151E0,2.7246025E-1,5.914388E0,4.487598E0,-3.5339613E0,3.065597E0,8.016005E0,7.609989E0,-5.9217305E0,2.6250226E0,-8.066589E0,-4.231372E0,1.0526135E1,1.10259205E-1,9.729084E0,-7.2459946E0,-7.9079574E-1,6.3659825E0,-9.341997E0,9.099615E0,-5.8583355E0,-3.9986541E0,4.722462E0,5.99884E0,1.0960501E0,1.3215672E1,-2.1666632E0,9.587334E-1,1.6158752E1,-8.478698E0,3.1622884E0,-3.1958787E0,1.024928E1,-1.1850128E1,-3.2408054E0,1.5432077E1,-2.7944603E0,7.964611E-1,-1.7769694E-1,8.165709E0,3.342088E0,-1.0484186E1,-1.1222649E0,4.484561E0,-1.2227482E0,4.481E-1,4.355736E0,-3.3571026E0,-9.442272E-1,4.27152E0,-1.2633476E0,-2.6795382E0,5.0430626E-1,-3.346277E-1,-1.6468933E0,-8.7250173E-1,6.4314704E0,7.9988885E-1,4.2124085E0,-3.5882099E0,1.3029337E0,5.1887226E0,2.4386503E-1,-3.3319411E0,1.3585309E0,8.5217804E-1,-9.85306E-1,6.5027986E0,7.6864016E-1,-5.1704407E-1,-2.8912752E0,2.0955224E0,-2.3927462E0,1.2390885E0,-2.0857222E0,4.077627E0,1.0470132E0,-4.9657145E0,-1.3473136E0,4.3357438E-1,-2.2565274E0,2.2812343E0,6.2176013E0,-1.1564479E0,-1.0105935E-1,-6.469642E-2,1.4167377E0,-1.6220659E0,-1.3776051E-2,1.47331E0,-9.1073775E-1,2.4498254E-1,-3.508778E0,9.7187257E-1,-2.405373E0,-1.5267323E0,2.0215707E0,-4.622202E-1,1.0562433E0],"categories":[],"categories_nodes":[],"categories_segments":[],"categories_sizes":[],"default_left":[0,0,0,0,0,0,0,0,0,0,0,0,0,0,0,0,0,0,0,0,0,0,0,0,0,0,0,0,0,0,0,0,0,0,0,0,0,0,0,0,0,0,0,0,0,0,0,0,0,0,0,0,0,0,0,0,0,0,0,0,0,0,0,0,0,0,0,0,0,0,0,0,0,0,0,0,0,0,0,0,0,0,0,0,0,0,0,0,0,0,0,0,0,0,0,0,0,0,0,0,0,0,0,0,0,0,0,0,0,0,0,0,0],"id":11,"left_children":[1,3,5,7,9,11,13,15,17,19,21,23,25,27,29,31,-1,33,35,37,39,41,43,45,47,-1,49,51,53,55,57,59,61,63,65,67,69,71,73,75,77,79,81,83,85,87,89,91,93,95,97,99,101,-1,103,105,107,109,111,-1,-1,-1,-1,-1,-1,-1,-1,-1,-1,-1,-1,-1,-1,-1,-1,-1,-1,-1,-1,-1,-1,-1,-1,-1,-1,-1,-1,-1,-1,-1,-1,-1,-1,-1,-1,-1,-1,-1,-1,-1,-1,-1,-1,-1,-1,-1,-1,-1,-1,-1,-1,-1,-1],"loss_changes":[3.8054544E2,1.5011647E3,5.512795E2,1.2923892E3,1.2213162E3,9.8483984E2,4.2896167E2,1.6464779E3,6.323754E2,5.812959E2,9.838354E2,8.996814E2,9.3583044E2,7.377204E2,6.590855E2,1.0554316E3,0E0,5.781804E2,4.1790027E2,7.444557E2,1.6170283E3,3.8252814E2,5.842731E2,5.20936E2,5.276107E2,0E0,5.659248E2,4.7931195E2,8.0269727E2,3.2534076E2,5.409787E2,4.1528442E2,4.4927124E1,6.071697E2,1.0770213E2,4.1946436E2,8.276781E2,1.3562684E3,3.4012363E3,9.9802563E2,7.086768E2,4.9253986E1,1.6951068E2,1.3213184E2,3.1118332E2,2.2136234E2,6.553723E1,5.139353E2,3.1178238E2,9.101489E1,6.5192966E0,2.8500642E3,1.177399E3,0E0,8.495469E1,1.6018103E2,2.3651852E2,4.2271753E2,3.3425238E2,0E0,0E0,0E0,0E0,0E0,0E0,0E0,0E0,0E0,0E0,0E0,0E0,0E0,0E0,0E0,0E0,0E0,0E0,0E0,0E0,0E0,0E0,0E0,0E0,0E0,0E0,0E0,0E0,0E0,0E0,0E0,0E0,0E0,0E0,0E0,0E0,0E0,0E0,0E0,0E0,0E0,0E0,0E0,0E0,0E0,0E0,0E0,0E0,0E0,0E0,0E0,0E0,0E0,0E0],"parents":[2147483647,0,0,1,1,2,2,3,3,4,4,5,5,6,6,7,7,8,8,9,9,10,10,11,11,12,12,13,13,14,14,15,15,17,17,18,18,19,19,20,20,21,21,22,22,23,23,24,24,26,26,27,27,28,28,29,29,30,30,31,31,32,32,33,33,34,34,35,35,36,36,37,37,38,38,39,39,40,40,41,41,42,42,43,43,44,44,45,45,46,46,47,47,48,48,49,49,50,50,51,51,52,52,54,54,55,55,56,56,57,57,58,58],"right_children":[2,4,6,8,10,12,14,16,18,20,22,24,26,28,30,32,-1,34,36,38,40,42,44,46,48,-1,50,52,54,56,58,60,62,64,66,68,70,72,74,76,78,80,82,84,86,88,90,92,94,96,98,100,102,-1,104,106,108,110,112,-1,-1,-1,-1,-1,-1,-1,-1,-1,-1,-1,-1,-1,-1,-1,-1,-1,-1,-1,-1,-1,-1,-1,-1,-1,-1,-1,-1,-1,-1,-1,-1,-1,-1,-1,-1,-1,-1,-1,-1,-1,-1,-1,-1,-1,-1,-1,-1,-1,-1,-1,-1,-1,-1],"split_conditions":[1.257426E1,1.2767267E2,1.2879752E1,3.0281948E1,3.1200165E2,5E-1,8.300001E0,2.4232231E1,8.350138E0,1.191812E1,4.8155007E0,4.2967505E0,2.3178337E0,8.2E0,1.7227419E1,1.3334251E1,5.914388E0,1.0786334E1,1.2429127E1,1.7720735E2,6E-1,4.4990835E0,1.6173834E1,1.6488333E0,1.3663418E1,-4.231372E0,3.1636383E2,1.576512E2,4.672E0,1.7853E1,1.9809813E1,1.0703569E1,1.0990322E1,3E-1,1E-1,7.825916E0,6.961934E1,1.5986359E2,2.0408873E2,1.189075E1,9.263416E0,1E-1,4.7571673E0,9.826088E0,3.5244833E2,1.4468864E2,2.813667E0,2.0785892E2,1.8107416E1,1.5230083E1,9.748834E0,8.000001E-1,1.6689719E2,8.165709E0,2.5754507E2,3.5533336E-1,1.88655E1,8.900001E0,1.7478E1,4.481E-1,4.355736E0,-3.3571026E0,-9.442272E-1,4.27152E0,-1.2633476E0,-2.6795382E0,5.0430626E-1,-3.346277E-1,-1.6468933E0,-8.7250173E-1,6.4314704E0,7.9988885E-1,4.2124085E0,-3.5882099E0,1.3029337E0,5.1887226E0,2.4386503E-1,-3.3319411E0,1.3585309E0,8.5217804E-1,-9.85306E-1,6.5027986E0,7.6864016E-1,-5.1704407E-1,-2.8912752E0,2.0955224E0,-2.3927462E0,1.2390885E0,-2.0857222E0,4.077627E0,1.0470132E0,-4.9657145E0,-1.3473136E0,4.3357438E-1,-2.2565274E0,2.2812343E0,6.2176013E0,-1.1564479E0,-1.0105935E-1,-6.469642E-2,1.4167377E0,-1.6220659E0,-1.3776051E-2,1.47331E0,-9.1073775E-1,2.4498254E-1,-3.508778E0,9.7187257E-1,-2.405373E0,-1.5267323E0,2.0215707E0,-4.622202E-1,1.0562433E0],"split_indices":[2,3,2,3,3,1,1,3,2,2,0,0,0,1,2,0,0,0,2,3,1,0,0,0,0,0,3,3,0,0,2,2,2,1,1,0,3,3,3,0,0,1,0,2,3,3,0,3,0,0,0,1,3,0,3,0,0,1,0,0,0,0,0,0,0,0,0,0,0,0,0,0,0,0,0,0,0,0,0,0,0,0,0,0,0,0,0,0,0,0,0,0,0,0,0,0,0,0,0,0,0,0,0,0,0,0,0,0,0,0,0,0,0],"split_type":[0,0,0,0,0,0,0,0,0,0,0,0,0,0,0,0,0,0,0,0,0,0,0,0,0,0,0,0,0,0,0,0,0,0,0,0,0,0,0,0,0,0,0,0,0,0,0,0,0,0,0,0,0,0,0,0,0,0,0,0,0,0,0,0,0,0,0,0,0,0,0,0,0,0,0,0,0,0,0,0,0,0,0,0,0,0,0,0,0,0,0,0,0,0,0,0,0,0,0,0,0,0,0,0,0,0,0,0,0,0,0,0,0],"sum_hessian":[3.05E3,3.21E2,2.729E3,1.34E2,1.87E2,4.8E1,2.681E3,2.1E1,1.13E2,1.58E2,2.9E1,4E1,8E0,2.431E3,2.5E2,1.6E1,5E0,1E1,1.03E2,1.29E2,2.9E1,6E0,2.3E1,1E1,3E1,1E0,7E0,2.424E3,7E0,1.6E1,2.34E2,1E1,6E0,7E0,3E0,9.8E1,5E0,5.1E1,7.8E1,1.9E1,1E1,4E0,2E0,1.8E1,5E0,6E0,4E0,1.6E1,1.4E1,5E0,2E0,7.16E2,1.708E3,1E0,6E0,1E1,6E0,1.7E1,2.17E2,7E0,3E0,4E0,2E0,5E0,2E0,2E0,1E0,3.4E1,6.4E1,4E0,1E0,3.7E1,1.4E1,1.5E1,6.3E1,1.4E1,5E0,4E0,6E0,3E0,1E0,1E0,1E0,3E0,1.5E1,4E0,1E0,2E0,4E0,2E0,2E0,9E0,7E0,7E0,7E0,3E0,2E0,1E0,1E0,5.7E2,1.46E2,4.1E1,1.667E3,5E0,1E0,1E0,9E0,4E0,2E0,3E0,1.4E1,2.04E2,1.3E1],"tree_param":{"num_deleted":"0","num_feature":"4","num_nodes":"113","size_leaf_vector":"1"}},{"base_weights":[5.984007E-2,-1.1522317E0,1.632673E-1,-4.7011278E-3,-5.6251626E0,9.315032E0,1.2071865E-1,-1.5327663E0,2.5633626E0,-7.327154E0,1.74532E0,-2.5543983E0,1.4874156E1,6.4598006E-1,-2.0947221E-1,-5.5403143E-1,-9.621178E0,3.6838973E-1,7.5351925E0,-5.014744E0,-1.2967624E1,7.427242E0,-5.42205E0,1.645209E0,-1.770762E0,7.3947697E0,5.878414E0,-8.462723E-1,1.3288908E0,3.4520407E0,-5.085214E-1,-2.0114644E0,4.4234023E0,-1.10622635E1,-3.6131668E0,4.395392E0,-4.7251515E0,1.610674E1,2.4613543E0,-7.4890385E0,1.5907258E0,-4.531329E0,-5.4521065E0,6.3194907E-1,2.4210274E0,-3.1311958E0,1.4005686E0,-1.602716E0,2.34306E0,-7.8897095E-1,3.8426368E0,1.1796836E0,-2.3588018E0,1.637942E0,-2.4862347E0,-1.7157503E0,5.1569905E0,-7.3965554E0,-4.5148972E-1,1.9678111E0,-1.2751904E0,-2.5790741E0,2.696265E0,-3.5843406E0,-4.6386367E-1,2.3950596E-1,-1.6049374E0,6.368082E-1,1.0204639E1,-4.7101736E0,-6.8814254E-1,5.4253807E0,2.0346308E0,-6.04587E-2,3.9540193E0,-8.869524E-1,-3.525839E0,3.5295594E0,-8.991027E-1,-4.784918E-1,-1.8618481E0,-4.7198585E-1,1.1022418E0,1.0591038E0,-1.0216576E0,5.7077084E0,1.2357369E-1,-3.2004008E0,-2.7052873E-1,3.7200564E-1,4.9075603E0,-1.200076E0,7.024657E-1,-1.5496749E0,4.33826E-1,1.9278085E0,-8.748721E-1,-2.8633368E0,-5.3299714E-2,1.7516632E0,-1.546658E-1],"categories":[],"categories_nodes":[],"categories_segments":[],"categories_sizes":[],"default_left":[0,0,0,0,0,0,0,0,0,0,0,0,0,0,0,0,0,0,0,0,0,0,0,0,0,0,0,0,0,0,0,0,0,0,0,0,0,0,0,0,0,0,0,0,0,0,0,0,0,0,0,0,0,0,0,0,0,0,0,0,0,0,0,0,0,0,0,0,0,0,0,0,0,0,0,0,0,0,0,0,0,0,0,0,0,0,0,0,0,0,0,0,0,0,0,0,0,0,0,0,0],"id":12,"left_children":[1,3,5,7,9,11,13,15,17,19,21,23,25,27,29,31,33,35,37,39,41,43,45,47,-1,-1,49,51,53,55,57,59,61,63,65,67,69,71,73,75,77,-1,79,-1,-1,-1,81,-1,-1,83,-1,85,87,89,91,93,95,97,99,-1,-1,-1,-1,-1,-1,-1,-1,-1,-1,-1,-1,-1,-1,-1,-1,-1,-1,-1,-1,-1,-1,-1,-1,-1,-1,-1,-1,-1,-1,-1,-1,-1,-1,-1,-1,-1,-1,-1,-1,-1,-1],"loss_changes":[3.8266525E2,1.2318516E3,1.0938547E3,7.573695E2,6.274689E2,8.9578186E2,4.8575757E2,9.5255524E2,7.8296234E2,4.5669385E2,4.4751523E2,8.0015305E1,6.4650793E2,1.102745E3,1.8851079E3,7.9961365E2,7.258496E1,1.0668656E3,9.1715E2,5.0222937E2,9.430017E1,3.5230103E0,1.857045E2,1.709605E2,0E0,0E0,2.8735065E2,1.0446509E3,8.789413E2,1.154255E3,6.216625E2,1.6591637E3,1.5629313E3,6.579431E1,3.4915638E1,1.8800024E3,5.7774164E2,2.4891357E1,4.3079626E2,3.9041614E2,4.5536038E2,0E0,1.7352905E0,0E0,0E0,0E0,2.6064276E1,0E0,0E0,5.722959E1,0E0,1.9926045E3,2.3512124E3,4.0039321E3,4.1869083E2,3.674275E2,1.0227732E3,1.9987518E2,6.3931433E2,0E0,0E0,0E0,0E0,0E0,0E0,0E0,0E0,0E0,0E0,0E0,0E0,0E0,0E0,0E0,0E0,0E0,0E0,0E0,0E0,0E0,0E0,0E0,0E0,0E0,0E0,0E0,0E0,0E0,0E0,0E0,0E0,0E0,0E0,0E0,0E0,0E0,0E0,0E0,0E0,0E0,0E0],"parents":[2147483647,0,0,1,1,2,2,3,3,4,4,5,5,6,6,7,7,8,8,9,9,10,10,11,11,12,12,13,13,14,14,15,15,16,16,17,17,18,18,19,19,20,20,21,21,22,22,23,23,26,26,27,27,28,28,29,29,30,30,31,31,32,32,33,33,34,34,35,35,36,36,37,37,38,38,39,39,40,40,42,42,46,46,49,49,51,51,52,52,53,53,54,54,55,55,56,56,57,57,58,58],"right_children":[2,4,6,8,10,12,14,16,18,20,22,24,26,28,30,32,34,36,38,40,42,44,46,48,-1,-1,50,52,54,56,58,60,62,64,66,68,70,72,74,76,78,-1,80,-1,-1,-1,82,-1,-1,84,-1,86,88,90,92,94,96,98,100,-1,-1,-1,-1,-1,-1,-1,-1,-1,-1,-1,-1,-1,-1,-1,-1,-1,-1,-1,-1,-1,-1,-1,-1,-1,-1,-1,-1,-1,-1,-1,-1,-1,-1,-1,-1,-1,-1,-1,-1,-1,-1],"split_conditions":[4.303126E1,3.722142E1,4.4844906E1,2.4232231E1,9.0000004E-1,8.921749E0,2E-1,2.1384657E1,2E-1,1.4198834E1,3.0000002E0,4.9386663E0,1.5019917E1,1.1424352E2,1.1955157E2,1.7478E1,1.5469668E1,1.2536334E1,1.4587776E1,9.528E0,1.8330086E1,8.967584E0,6.1999993E0,3.5032494E0,-1.770762E0,7.3947697E0,3E-1,8.278001E0,2.7288855E1,6.0694004E1,1.2767267E2,1.3722565E1,1.3910169E1,2.2805367E1,1.5886581E1,1.230925E1,1.4198834E1,5.3999996E0,1.44655E1,4.8821664E0,1.191812E1,-4.531329E0,1.7935081E1,6.3194907E-1,2.4210274E0,-3.1311958E0,8.967584E0,-1.602716E0,2.34306E0,1.5653E1,3.8426368E0,4.7559334E1,1.0186333E1,2.5460936E1,1.1057416E1,5.6550827E0,8.2E0,1.4790751E1,1.3654605E2,1.9678111E0,-1.2751904E0,-2.5790741E0,2.696265E0,-3.5843406E0,-4.6386367E-1,2.3950596E-1,-1.6049374E0,6.368082E-1,1.0204639E1,-4.7101736E0,-6.8814254E-1,5.4253807E0,2.0346308E0,-6.04587E-2,3.9540193E0,-8.869524E-1,-3.525839E0,3.5295594E0,-8.991027E-1,-4.784918E-1,-1.8618481E0,-4.7198585E-1,1.1022418E0,1.0591038E0,-1.0216576E0,5.7077084E0,1.2357369E-1,-3.2004008E0,-2.7052873E-1,3.7200564E-1,4.9075603E0,-1.200076E0,7.024657E-1,-1.5496749E0,4.33826E-1,1.9278085E0,-8.748721E-1,-2.8633368E0,-5.3299714E-2,1.7516632E0,-1.546658E-1],"split_indices":[3,3,3,3,1,0,1,3,1,0,1,0,0,3,3,0,0,0,2,0,0,0,1,0,0,0,1,0,2,3,3,2,2,2,0,0,0,1,0,0,2,0,2,0,0,0,0,0,0,0,0,3,0,2,0,0,1,0,3,0,0,0,0,0,0,0,0,0,0,0,0,0,0,0,0,0,0,0,0,0,0,0,0,0,0,0,0,0,0,0,0,0,0,0,0,0,0,0,0,0,0],"split_type":[0,0,0,0,0,0,0,0,0,0,0,0,0,0,0,0,0,0,0,0,0,0,0,0,0,0,0,0,0,0,0,0,0,0,0,0,0,0,0,0,0,0,0,0,0,0,0,0,0,0,0,0,0,0,0,0,0,0,0,0,0,0,0,0,0,0,0,0,0,0,0,0,0,0,0,0,0,0,0,0,0,0,0,0,0,0,0,0,0,0,0,0,0,0,0,0,0,0,0,0,0],"sum_hessian":[3.05E3,2.39E2,2.811E3,1.91E2,4.8E1,1.2E1,2.799E3,1.2E2,7.1E1,3.9E1,9E0,4E0,8E0,1.08E3,1.719E3,1.08E2,1.2E1,5E1,2.1E1,2.9E1,1E1,5E0,4E0,2E0,2E0,3E0,5E0,3.39E2,7.41E2,1.29E2,1.59E3,8.4E1,2.4E1,9E0,3E0,2.8E1,2.2E1,7E0,1.4E1,2.1E1,8E0,7E0,3E0,1E0,4E0,2E0,2E0,1E0,1E0,3E0,2E0,1.45E2,1.94E2,6.86E2,5.5E1,3.2E1,9.7E1,1.2E1,1.578E3,1.7E1,6.7E1,6E0,1.8E1,8E0,1E0,1E0,2E0,2.7E1,1E0,3E0,1.9E1,5E0,2E0,1.2E1,2E0,1.1E1,1E1,2E0,6E0,1E0,2E0,1E0,1E0,1E0,2E0,5E0,1.4E2,2.8E1,1.66E2,6.69E2,1.7E1,4.2E1,1.3E1,1.5E1,1.7E1,8.4E1,1.3E1,9E0,3E0,1.5E1,1.563E3],"tree_param":{"num_deleted":"0","num_feature":"4","num_nodes":"101","size_leaf_vector":"1"}},{"base_weights":[4.847426E-2,1.0980753E-2,2.298615E0,4.7724627E-2,-8.440955E0,6.222795E0,1.8221039E0,1.7095128E-2,7.060565E0,-1.7194557E0,-1.02854595E1,7.7542906E0,1.4521981E-2,-5.631986E0,2.6661122E0,2.3077986E-1,-4.2889258E-1,1.3278206E1,3.8674521E0,6.442642E-2,-1.0606654E0,-7.5296717E0,-4.2617226E0,2.0397435E-1,2.9657333E0,2.3254968E-2,-7.078741E0,6.0230656E0,1.5680622E0,1.5999661E-1,5.855895E0,-5.373327E-1,6.0365477E0,6.731152E-1,4.8625393E0,7.4695764E0,-1.2285874E0,5.9346545E-1,-5.6447357E-1,-3.2012792E0,3.788208E-1,-2.3994124E0,-6.481264E-1,3.3574743E0,-1.3837655E0,-7.5505524E0,2.7316086E0,1.0519904E-1,-3.6174074E-1,8.258259E0,-1.7885358E0,-3.1070474E-1,1.141919E-1,-1.2120104E0,3.74595E0,4.0659487E-1,3.0563633E0,1.0768929E-1,-7.2198296E-1,-1.4900762E0,7.981934E-1,-5.676945E-1,-2.641758E0,2.6620443E0,5.9279805E-1],"categories":[],"categories_nodes":[],"categories_segments":[],"categories_sizes":[],"default_left":[0,0,0,0,0,0,0,0,0,0,0,0,0,0,0,0,0,0,0,0,0,0,0,0,0,0,0,0,0,0,0,0,0,0,0,0,0,0,0,0,0,0,0,0,0,0,0,0,0,0,0,0,0,0,0,0,0,0,0,0,0,0,0,0,0],"id":13,"left_children":[1,3,5,7,9,11,13,15,17,19,21,23,-1,25,27,29,31,33,35,37,-1,39,-1,-1,-1,-1,41,43,45,47,49,51,53,-1,-1,55,57,-1,-1,-1,-1,-1,-1,-1,59,61,63,-1,-1,-1,-1,-1,-1,-1,-1,-1,-1,-1,-1,-1,-1,-1,-1,-1,-1],"loss_changes":[2.5737442E2,9.326945E2,8.2157196E1,6.4213074E2,1.4348651E2,4.6904877E1,3.0441592E2,2.8390466E2,2.0674426E2,1.31865835E1,1.0700684E0,5.35943E1,0E0,4.1849976E1,1.4537177E2,8.009652E2,6.7981805E2,9.296838E1,1.927427E2,1.4894917E1,0E0,2.3442831E2,0E0,0E0,0E0,0E0,8.065033E-1,3.983097E2,3.7075293E2,5.186439E2,6.566824E3,4.3499188E2,1.0903416E3,0E0,0E0,8.591464E1,1.0214745E1,0E0,0E0,0E0,0E0,0E0,0E0,0E0,8.567394E1,1.17478485E1,1.2169278E2,0E0,0E0,0E0,0E0,0E0,0E0,0E0,0E0,0E0,0E0,0E0,0E0,0E0,0E0,0E0,0E0,0E0,0E0],"parents":[2147483647,0,0,1,1,2,2,3,3,4,4,5,5,6,6,7,7,8,8,9,9,10,10,11,11,13,13,14,14,15,15,16,16,17,17,18,18,19,19,21,21,26,26,27,27,28,28,29,29,30,30,31,31,32,32,35,35,36,36,44,44,45,45,46,46],"right_children":[2,4,6,8,10,12,14,16,18,20,22,24,-1,26,28,30,32,34,36,38,-1,40,-1,-1,-1,-1,42,44,46,48,50,52,54,-1,-1,56,58,-1,-1,-1,-1,-1,-1,-1,60,62,64,-1,-1,-1,-1,-1,-1,-1,-1,-1,-1,-1,-1,-1,-1,-1,-1,-1,-1],"split_conditions":[2.2394669E1,2.1913416E1,1.1440979E1,2.1609503E1,1.0239759E2,5E-1,1.3202726E1,1.3830083E1,1.1269782E1,1.835647E1,4E-1,9.6932955E0,1.4521981E-2,1.1681987E1,1.48257065E1,1.3663418E1,3.5244833E2,8.350138E0,1.0832191E2,1E-1,-1.0606654E0,1.4021525E1,-4.2617226E0,2.0397435E-1,2.9657333E0,2.3254968E-2,2.3119669E1,2.4707167E1,1.5496736E1,2.9393533E2,2E-1,1.5999999E0,1.5990646E1,6.731152E-1,4.8625393E0,1.6171976E1,1.6171976E1,5.9346545E-1,-5.6447357E-1,-3.2012792E0,3.788208E-1,-2.3994124E0,-6.481264E-1,3.3574743E0,1.3797912E1,2.3119669E1,5.3376522E1,1.0519904E-1,-3.6174074E-1,8.258259E0,-1.7885358E0,-3.1070474E-1,1.141919E-1,-1.2120104E0,3.74595E0,4.0659487E-1,3.0563633E0,1.0768929E-1,-7.2198296E-1,-1.4900762E0,7.981934E-1,-5.676945E-1,-2.641758E0,2.6620443E0,5.9279805E-1],"split_indices":[0,0,2,0,3,1,2,0,2,2,1,2,0,2,2,0,3,2,3,1,0,2,0,0,0,0,0,0,2,3,1,1,2,0,0,2,2,0,0,0,0,0,0,0,2,0,3,0,0,0,0,0,0,0,0,0,0,0,0,0,0,0,0,0,0],"split_type":[0,0,0,0,0,0,0,0,0,0,0,0,0,0,0,0,0,0,0,0,0,0,0,0,0,0,0,0,0,0,0,0,0,0,0,0,0,0,0,0,0,0,0,0,0,0,0,0,0,0,0,0,0,0,0,0,0,0,0,0,0,0,0,0,0],"sum_hessian":[3.05E3,3.001E3,4.9E1,2.989E3,1.2E1,4E0,4.5E1,2.977E3,1.2E1,3E0,9E0,3E0,1E0,4E0,4.1E1,2.013E3,9.64E2,3E0,9E0,2E0,1E0,7E0,2E0,1E0,2E0,1E0,3E0,9E0,3.2E1,1.989E3,2.4E1,9.49E2,1.5E1,1E0,2E0,5E0,4E0,1E0,1E0,5E0,2E0,2E0,1E0,5E0,4E0,3E0,2.9E1,1.746E3,2.43E2,8E0,1.6E1,6.15E2,3.34E2,6E0,9E0,2E0,3E0,2E0,2E0,2E0,2E0,1E0,2E0,2E0,2.7E1],"tree_param":{"num_deleted":"0","num_feature":"4","num_nodes":"65","size_leaf_vector":"1"}},{"base_weights":[3.7763406E-2,1.0846423E0,-3.2529775E-2,-1.9949074E-1,8.613117E0,-4.5215497E0,7.0534474E-3,-8.442701E-1,5.4635453E0,-7.5120335E0,1.0848617E1,-5.7845016E0,3.8683956E0,1.1436104E0,-1.0713402E-1,8.5778683E-1,-3.5295281E0,1.0025908E1,-2.486388E0,-6.4659274E-1,-3.537331E0,2.5727154E1,6.7895074E0,-8.656729E0,4.274967E0,8.275783E0,7.330655E-1,-6.0255136E0,-2.33083E-2,-5.175526E-1,1.3598978E1,-6.1540504E0,4.4496378E-1,-6.9411343E-1,1.2485259E1,-6.911175E0,2.5599957E0,8.801012E0,1.6933423E0,-4.5246334E0,8.637194E0,7.120346E-1,-1.1202535E1,-2.3465533E0,8.258698E0,1.0134182E1,-2.3825102E0,-9.213627E-1,1.7447203E0,-1.1284636E1,-2.9257598E0,-6.489104E0,-2.9022768E-3,-2.3117404E0,2.721414E-1,5.8678703E0,-1.4526163E0,-2.4707738E-1,-2.5688586E0,4.3844833E0,-4.5225957E-1,-8.844984E-1,5.7214737E-1,5.609049E0,2.4118648E0,-2.411012E0,-5.301871E-1,1.0157692E0,1.2343598E-2,-2.1386811E-1,3.3057816E0,1.5989468E0,-5.3246045E-1,-2.1513205E0,-4.8163676E0,1.3279325E-1,3.0306153E0,1.195633E-1,4.850741E0,-2.6757727E0,7.381739E-2,3.214153E0,7.099465E-2,-1.2426624E0,-3.9039433E0,9.5898025E-2,-2.250394E0,2.8793547E-1,-2.7396092E0,8.3700526E-1,-1.2591221E-2],"categories":[],"categories_nodes":[],"categories_segments":[],"categories_sizes":[],"default_left":[0,0,0,0,0,0,0,0,0,0,0,0,0,0,0,0,0,0,0,0,0,0,0,0,0,0,0,0,0,0,0,0,0,0,0,0,0,0,0,0,0,0,0,0,0,0,0,0,0,0,0,0,0,0,0,0,0,0,0,0,0,0,0,0,0,0,0,0,0,0,0,0,0,0,0,0,0,0,0,0,0,0,0,0,0,0,0,0,0,0,0],"id":14,"left_children":[1,3,5,7,9,11,13,15,17,19,21,23,-1,25,27,29,31,33,35,-1,-1,37,39,41,43,45,47,49,51,53,55,57,59,61,63,65,67,-1,-1,-1,69,71,73,-1,75,77,-1,79,81,83,85,87,89,-1,-1,-1,-1,-1,-1,-1,-1,-1,-1,-1,-1,-1,-1,-1,-1,-1,-1,-1,-1,-1,-1,-1,-1,-1,-1,-1,-1,-1,-1,-1,-1,-1,-1,-1,-1,-1,-1],"loss_changes":[2.2455363E2,1.8578901E3,5.082249E2,6.070952E2,1.090833E3,6.2448486E2,3.6818018E2,6.840264E2,6.415265E2,6.627373E1,1.3351653E3,7.3044116E2,0E0,7.523051E2,1.2788375E3,1.6191968E3,6.0774457E2,2.9867346E2,1.7399677E2,0E0,0E0,1.9685693E2,9.789168E2,4.6114648E2,3.537409E2,5.0242224E2,4.133402E2,5.538552E2,3.3550754E2,8.672367E2,1.083983E3,4.423501E2,6.8603625E2,2.3214397E1,9.821948E1,8.955231E0,8.181978E0,0E0,0E0,0E0,4.5330835E2,6.687968E1,1.782832E2,0E0,6.756711E1,7.5735974E2,0E0,8.7986224E2,2.0669546E3,1.0659155E2,3.587881E2,1.6625974E2,2.7683292E2,0E0,0E0,0E0,0E0,0E0,0E0,0E0,0E0,0E0,0E0,0E0,0E0,0E0,0E0,0E0,0E0,0E0,0E0,0E0,0E0,0E0,0E0,0E0,0E0,0E0,0E0,0E0,0E0,0E0,0E0,0E0,0E0,0E0,0E0,0E0,0E0,0E0,0E0],"parents":[2147483647,0,0,1,1,2,2,3,3,4,4,5,5,6,6,7,7,8,8,9,9,10,10,11,11,13,13,14,14,15,15,16,16,17,17,18,18,21,21,22,22,23,23,24,24,25,25,26,26,27,27,28,28,29,29,30,30,31,31,32,32,33,33,34,34,35,35,36,36,40,40,41,41,42,42,44,44,45,45,47,47,48,48,49,49,50,50,51,51,52,52],"right_children":[2,4,6,8,10,12,14,16,18,20,22,24,-1,26,28,30,32,34,36,-1,-1,38,40,42,44,46,48,50,52,54,56,58,60,62,64,66,68,-1,-1,-1,70,72,74,-1,76,78,-1,80,82,84,86,88,90,-1,-1,-1,-1,-1,-1,-1,-1,-1,-1,-1,-1,-1,-1,-1,-1,-1,-1,-1,-1,-1,-1,-1,-1,-1,-1,-1,-1,-1,-1,-1,-1,-1,-1,-1,-1,-1,-1],"split_conditions":[1.1119281E1,1.0829959E1,1.1440979E1,2.01905E1,3.7884166E0,8.2E0,3.242583E0,1.0872002E1,2.1913416E1,1.4032501E0,5.113666E0,1.7694666E1,3.8683956E0,1.2429127E1,3.5863333E0,9.748834E0,1.9939279E2,8.350138E0,2.2394669E1,-6.4659274E-1,-3.537331E0,1E-1,6.373833E0,1.4032501E0,1.2481604E2,9.0000004E-1,8.891675E1,1.9130875E1,1.1542478E1,5.4929844E1,1.7434492E2,6.568851E1,8.350138E0,2.0444916E1,9.422101E0,1.2994267E2,5E-1,8.801012E0,1.6933423E0,-4.5246334E0,5.066099E1,1.8735035E1,1E-1,-2.3465533E0,1.8449083E1,8.759165E-1,-2.3825102E0,1.4345898E1,1.1595604E2,1.3797912E1,2.0686038E2,4.4844906E1,6.3819695E0,-2.3117404E0,2.721414E-1,5.8678703E0,-1.4526163E0,-2.4707738E-1,-2.5688586E0,4.3844833E0,-4.5225957E-1,-8.844984E-1,5.7214737E-1,5.609049E0,2.4118648E0,-2.411012E0,-5.301871E-1,1.0157692E0,1.2343598E-2,-2.1386811E-1,3.3057816E0,1.5989468E0,-5.3246045E-1,-2.1513205E0,-4.8163676E0,1.3279325E-1,3.0306153E0,1.195633E-1,4.850741E0,-2.6757727E0,7.381739E-2,3.214153E0,7.099465E-2,-1.2426624E0,-3.9039433E0,9.5898025E-2,-2.250394E0,2.8793547E-1,-2.7396092E0,8.3700526E-1,-1.2591221E-2],"split_indices":[2,2,2,0,0,1,0,0,0,0,0,0,0,2,0,0,3,2,0,0,0,1,0,0,3,1,3,2,2,3,3,3,2,0,2,3,1,0,0,0,3,3,1,0,0,0,0,2,3,2,3,3,3,0,0,0,0,0,0,0,0,0,0,0,0,0,0,0,0,0,0,0,0,0,0,0,0,0,0,0,0,0,0,0,0,0,0,0,0,0,0],"split_type":[0,0,0,0,0,0,0,0,0,0,0,0,0,0,0,0,0,0,0,0,0,0,0,0,0,0,0,0,0,0,0,0,0,0,0,0,0,0,0,0,0,0,0,0,0,0,0,0,0,0,0,0,0,0,0,0,0,0,0,0,0,0,0,0,0,0,0,0,0,0,0,0,0,0,0,0,0,0,0,0,0,0,0,0,0,0,0,0,0,0,0],"sum_hessian":[3.05E3,1.91E2,2.859E3,1.64E2,2.7E1,2.4E1,2.835E3,1.48E2,1.6E1,3E0,2.4E1,2.3E1,1E0,2.58E2,2.577E3,9.1E1,5.7E1,1E1,6E0,2E0,1E0,4E0,2E1,1.8E1,5E0,1.3E1,2.45E2,3.5E1,2.542E3,8.3E1,8E0,3.4E1,2.3E1,2E0,8E0,3E0,3E0,3E0,1E0,1E0,1.9E1,4E0,1.4E1,1E0,4E0,1.2E1,1E0,9.3E1,1.52E2,1.2E1,2.3E1,7E0,2.535E3,1.3E1,7E1,6E0,2E0,1.1E1,2.3E1,2E0,2.1E1,1E0,1E0,2E0,6E0,2E0,1E0,2E0,1E0,4E0,1.5E1,1E0,3E0,9E0,5E0,1E0,3E0,5E0,7E0,1.1E1,8.2E1,2.1E1,1.31E2,3E0,9E0,1.4E1,9E0,2E0,5E0,3.4E1,2.501E3],"tree_param":{"num_deleted":"0","num_feature":"4","num_nodes":"91","size_leaf_vector":"1"}},{"base_weights":[2.8824624E-2,3.295455E-1,-1.7698261E-1,2.4188364E-1,7.472472E0,-5.114044E0,-8.25267E-2,-8.279341E0,2.765516E-1,1.4055496E1,-4.461074E-2,2.1411788E0,-5.7015767E0,-1.5680385E0,1.5015092E-1,-1.4128443E0,-3.7158175E0,6.8661875E-1,-2.8772816E-1,1.6188505E1,-1.3133469E-1,3.5090256E0,-4.4755034E0,-1.7999123E1,-3.8718512E0,-7.471107E0,-1.0866846E0,3.9352784E0,-1.1401662E-2,-2.5786974E-2,-6.09993E-1,-1.8789529E0,1.1667819E0,3.0593538E0,-8.4744835E-1,5.998436E0,5.719454E0,2.723603E0,-1.5305614E-1,-1.6436005E-1,-1.6806281E0,-6.7214603E0,-7.172842E-1,5.418577E0,-5.1048093E0,-8.876166E0,2.4622364E0,-1.6828153E0,2.0731874E0,-5.5988135E0,4.853714E0,2.953569E0,-1.303263E-1,-1.9573672E-1,-2.3543985E0,1.6934261E0,2.1875057E-1,-5.2855265E-1,2.0323784E0,-7.769159E-1,1.3929786E-1,4.066603E0,-1.367307E0,2.9749376E-1,-2.5955164E-1,-1.6900731E0,5.786256E0,-1.8313503E0,-7.2814447E-1,6.030124E-1,-3.40575E0,-2.3945643E-1,-1.9607981E0,-2.8214035E0,1.404675E0,-3.81311E0,1.7248586E0,2.1830418E0,-1.5089726E-1,1.704102E0,-7.124923E-1,-1.1072001E0,-1.443849E-4],"categories":[],"categories_nodes":[],"categories_segments":[],"categories_sizes":[],"default_left":[0,0,0,0,0,0,0,0,0,0,0,0,0,0,0,0,0,0,0,0,0,0,0,0,0,0,0,0,0,0,0,0,0,0,0,0,0,0,0,0,0,0,0,0,0,0,0,0,0,0,0,0,0,0,0,0,0,0,0,0,0,0,0,0,0,0,0,0,0,0,0,0,0,0,0,0,0,0,0,0,0,0,0],"id":15,"left_children":[1,3,5,7,9,11,13,15,17,19,21,-1,23,25,27,29,-1,31,33,35,-1,37,39,41,43,45,47,49,51,-1,-1,53,55,57,59,61,-1,-1,63,-1,-1,-1,-1,65,67,69,-1,71,73,75,77,79,81,-1,-1,-1,-1,-1,-1,-1,-1,-1,-1,-1,-1,-1,-1,-1,-1,-1,-1,-1,-1,-1,-1,-1,-1,-1,-1,-1,-1,-1,-1],"loss_changes":[1.8888634E2,7.746338E2,8.445764E2,3.6446652E2,7.4290405E2,2.85427E2,6.151385E2,1.2349417E2,2.829593E2,2.5440125E2,1.4167091E2,0E0,6.728474E2,6.7667426E2,9.41139E2,2.2950883E0,0E0,8.7437256E2,9.6740875E2,9.081152E1,0E0,1.0337213E2,1.463015E1,2.2149353E2,3.71302E2,4.6937854E2,4.2543683E2,5.788314E2,5.211871E2,0E0,0E0,8.148329E2,1.1657771E3,1.3374167E3,1.0113789E3,3.0109607E2,0E0,0E0,4.118586E0,0E0,0E0,0E0,0E0,7.217844E2,5.7458008E1,4.8110278E2,0E0,8.062079E2,1.1221079E3,5.5730457E2,7.564877E2,8.416845E2,6.5691595E2,0E0,0E0,0E0,0E0,0E0,0E0,0E0,0E0,0E0,0E0,0E0,0E0,0E0,0E0,0E0,0E0,0E0,0E0,0E0,0E0,0E0,0E0,0E0,0E0,0E0,0E0,0E0,0E0,0E0,0E0],"parents":[2147483647,0,0,1,1,2,2,3,3,4,4,5,5,6,6,7,7,8,8,9,9,10,10,12,12,13,13,14,14,15,15,17,17,18,18,19,19,21,21,22,22,23,23,24,24,25,25,26,26,27,27,28,28,31,31,32,32,33,33,34,34,35,35,38,38,43,43,44,44,45,45,47,47,48,48,49,49,50,50,51,51,52,52],"right_children":[2,4,6,8,10,12,14,16,18,20,22,-1,24,26,28,30,-1,32,34,36,-1,38,40,42,44,46,48,50,52,-1,-1,54,56,58,60,62,-1,-1,64,-1,-1,-1,-1,66,68,70,-1,72,74,76,78,80,82,-1,-1,-1,-1,-1,-1,-1,-1,-1,-1,-1,-1,-1,-1,-1,-1,-1,-1,-1,-1,-1,-1,-1,-1,-1,-1,-1,-1,-1,-1],"split_conditions":[1.8709612E1,1.8668005E1,1.8892282E1,-3.2740831E0,1.3869421E2,5.70572E1,8.269839E1,8.78872E0,1E-1,1.3334251E1,2.4071608E2,2.1411788E0,8.891675E1,1.9272614E1,1.1955157E2,8.350138E0,-3.7158175E0,5.1776142E1,4.3800836E0,2.907417E0,-1.3133469E-1,8.678E0,4.3800836E0,6.85325E0,1.2767267E2,4.899999E0,1.5999999E0,1.9164719E1,1.9373219E1,-2.5786974E-2,-6.09993E-1,1.7942583E1,6.739957E1,1.4512064E1,1.3197E1,2.813667E0,5.719454E0,2.723603E0,9.480084E0,-1.6436005E-1,-1.6806281E0,-6.7214603E0,-7.172842E-1,3.0113335E0,1.6363417E1,1.1814947E1,2.4622364E0,7.292763E1,2.4232231E1,4.8155007E0,2.386341E1,1.3267834E1,1.5554881E2,-1.9573672E-1,-2.3543985E0,1.6934261E0,2.1875057E-1,-5.2855265E-1,2.0323784E0,-7.769159E-1,1.3929786E-1,4.066603E0,-1.367307E0,2.9749376E-1,-2.5955164E-1,-1.6900731E0,5.786256E0,-1.8313503E0,-7.2814447E-1,6.030124E-1,-3.40575E0,-2.3945643E-1,-1.9607981E0,-2.8214035E0,1.404675E0,-3.81311E0,1.7248586E0,2.1830418E0,-1.5089726E-1,1.704102E0,-7.124923E-1,-1.1072001E0,-1.443849E-4],"split_indices":[2,2,2,0,3,3,3,2,1,0,3,0,3,2,3,2,0,3,0,0,0,0,0,0,3,1,1,2,2,0,0,0,3,2,0,0,0,0,0,0,0,0,0,0,0,3,0,3,3,0,2,0,3,0,0,0,0,0,0,0,0,0,0,0,0,0,0,0,0,0,0,0,0,0,0,0,0,0,0,0,0,0,0],"split_type":[0,0,0,0,0,0,0,0,0,0,0,0,0,0,0,0,0,0,0,0,0,0,0,0,0,0,0,0,0,0,0,0,0,0,0,0,0,0,0,0,0,0,0,0,0,0,0,0,0,0,0,0,0,0,0,0,0,0,0,0,0,0,0,0,0,0,0,0,0,0,0,0,0,0,0,0,0,0,0,0,0,0,0],"sum_hessian":[3.05E3,1.239E3,1.811E3,1.225E3,1.4E1,3.3E1,1.778E3,4E0,1.221E3,7E0,7E0,1E0,3.2E1,2.4E2,1.538E3,2E0,2E0,7.07E2,5.14E2,6E0,1E0,4E0,3E0,3E0,2.9E1,1.7E1,2.23E2,6.2E1,1.476E3,1E0,1E0,1.11E2,5.96E2,7.3E1,4.41E2,2E0,4E0,1E0,3E0,1E0,2E0,2E0,1E0,3E0,2.6E1,1.6E1,1E0,1.88E2,3.5E1,5E0,5.7E1,5.6E1,1.42E3,9.3E1,1.8E1,5.2E1,5.44E2,3.2E1,4.1E1,1.89E2,2.52E2,1E0,1E0,1E0,2E0,2E0,1E0,1.8E1,8E0,3E0,1.3E1,1.6E2,2.8E1,6E0,2.9E1,3E0,2E0,3.9E1,1.8E1,3.7E1,1.9E1,4.9E1,1.371E3],"tree_param":{"num_deleted":"0","num_feature":"4","num_nodes":"83","size_leaf_vector":"1"}},{"base_weights":[1.9256746E-2,1.5783449E-1,-3.3627594E-1,-2.5968966E-3,1.6061242E0,-5.775381E-1,6.325726E0,1.4366652E-1,-1.6430786E0,1.2915847E1,1.335637E0,-6.3753524E0,-3.05608E-1,1.7720537E1,3.3379426E0,9.225094E-3,2.7538414E0,-5.0258365E0,-9.292985E-1,1.9836451E0,5.86283E0,5.014088E0,8.0307704E-1,-1.97211E0,-8.410024E0,-2.1874216E-1,-7.8289804E0,-1.17563E0,8.238759E0,4.265765E0,1.2078042E0,1.1181192E-1,-5.108319E0,-2.8900636E-2,1.5451908E1,-6.8164206E0,-1.6388955E0,9.074518E-1,-2.501709E0,8.9750636E-1,-4.866028E-3,1.2495992E1,5.7891506E-1,4.570492E0,4.883961E-1,3.7872252E0,-7.449715E0,-1.09853325E1,-1.5643265E0,3.046322E0,-3.710232E-1,-2.8998368E0,-9.32656E-1,3.3538914E-1,-8.644226E-1,1.0352601E1,-1.3995173E0,1.6943973E-1,-1.7429993E-1,-1.1167426E0,-2.9765797E0,4.6619692E-1,-1.4078221E0,2.3113586E1,3.448857E-1,-6.407212E-1,-2.400362E0,1.3175231E0,-1.7137102E0,-2.910327E-1,1.5919638E0,-1.4652613E0,-1.5479991E-2,-4.609879E-1,4.8588676E0,-1.0568466E0,1.8439318E0,-7.7681416E-1,5.010877E-1,3.9880052E0,-8.021685E-1,-3.1469254E0,1.6185752E0,-3.7897658E0,-6.185785E-1,-1.2154237E0,-1.8018818E-2,3.4496531E0,3.7628216E-1,-1.2811245E-1,1.9911249E0,2.7187273E-1,-6.915679E-1,5.9492254E-1,3.584764E0,-9.82732E-1,2.5221407E-1],"categories":[],"categories_nodes":[],"categories_segments":[],"categories_sizes":[],"default_left":[0,0,0,0,0,0,0,0,0,0,0,0,0,0,0,0,0,0,0,0,0,0,0,0,0,0,0,0,0,0,0,0,0,0,0,0,0,0,0,0,0,0,0,0,0,0,0,0,0,0,0,0,0,0,0,0,0,0,0,0,0,0,0,0,0,0,0,0,0,0,0,0,0,0,0,0,0,0,0,0,0,0,0,0,0,0,0,0,0,0,0,0,0,0,0,0,0],"id":16,"left_children":[1,3,5,7,9,11,13,15,17,19,21,23,25,27,29,31,33,35,37,39,-1,41,43,45,47,49,51,53,-1,-1,55,57,59,61,63,65,67,69,71,-1,-1,73,75,-1,77,79,81,83,85,87,89,-1,91,-1,-1,93,95,-1,-1,-1,-1,-1,-1,-1,-1,-1,-1,-1,-1,-1,-1,-1,-1,-1,-1,-1,-1,-1,-1,-1,-1,-1,-1,-1,-1,-1,-1,-1,-1,-1,-1,-1,-1,-1,-1,-1,-1],"loss_changes":[1.5037253E2,5.1024722E2,1.3794926E3,4.748422E2,6.5269965E2,1.3018997E3,9.6220667E2,6.375883E2,3.8648584E2,3.234682E2,4.171574E2,3.149032E2,5.152251E2,1.1368035E3,5.6229144E2,9.082834E2,3.1453008E3,1.5863745E2,3.9216714E2,6.0963736E0,0E0,8.887214E2,8.508919E2,4.3832947E2,4.235598E2,3.9044366E2,1.0501056E2,1.4958401E1,0E0,0E0,5.39044E2,5.3259186E2,1.8987695E2,5.535861E2,1.4006246E4,8.273242E1,2.9530927E2,5.255006E2,4.2587622E2,0E0,0E0,5.441272E2,4.3271017E2,0E0,6.80921E2,4.6548654E2,3.2993896E2,2.3853076E2,2.9686522E1,5.157337E2,2.968783E2,0E0,9.661146E0,0E0,0E0,4.3118286E1,7.841242E1,0E0,0E0,0E0,0E0,0E0,0E0,0E0,0E0,0E0,0E0,0E0,0E0,0E0,0E0,0E0,0E0,0E0,0E0,0E0,0E0,0E0,0E0,0E0,0E0,0E0,0E0,0E0,0E0,0E0,0E0,0E0,0E0,0E0,0E0,0E0,0E0,0E0,0E0,0E0,0E0],"parents":[2147483647,0,0,1,1,2,2,3,3,4,4,5,5,6,6,7,7,8,8,9,9,10,10,11,11,12,12,13,13,14,14,15,15,16,16,17,17,18,18,19,19,21,21,22,22,23,23,24,24,25,25,26,26,27,27,30,30,31,31,32,32,33,33,34,34,35,35,36,36,37,37,38,38,41,41,42,42,44,44,45,45,46,46,47,47,48,48,49,49,50,50,52,52,55,55,56,56],"right_children":[2,4,6,8,10,12,14,16,18,20,22,24,26,28,30,32,34,36,38,40,-1,42,44,46,48,50,52,54,-1,-1,56,58,60,62,64,66,68,70,72,-1,-1,74,76,-1,78,80,82,84,86,88,90,-1,92,-1,-1,94,96,-1,-1,-1,-1,-1,-1,-1,-1,-1,-1,-1,-1,-1,-1,-1,-1,-1,-1,-1,-1,-1,-1,-1,-1,-1,-1,-1,-1,-1,-1,-1,-1,-1,-1,-1,-1,-1,-1,-1,-1],"split_conditions":[2.6E0,1.5999999E0,3.3096347E2,3.187849E2,1.6E0,2.8000002E0,6.3113327E0,3.014034E2,3.2397778E2,2.1578989E1,1.3869421E2,1.9170479E2,3.2397778E2,5.269916E0,2.8E0,2.9211725E2,2.4766848E1,1.3197E1,1E-1,3.5863333E0,5.86283E0,1.9000002E0,1.4032501E0,2.7E0,2.9122198E1,6.338111E1,7.7000003E0,2.5740833E0,8.238759E0,4.265765E0,3.3467712E2,1.2536334E1,2.259699E1,6E-1,2E-1,5.4217496E0,1.45095E1,1.8228943E1,5E-1,8.9750636E-1,-4.866028E-3,8.759165E-1,8.001263E1,4.570492E0,2.106754E2,1.9373219E1,1.9030478E2,1.437175E1,2.7E0,3.1000001E0,3.2084583E2,-2.8998368E0,1.4275917E1,3.3538914E-1,-8.644226E-1,6.4425836E0,1.3930332E1,1.6943973E-1,-1.7429993E-1,-1.1167426E0,-2.9765797E0,4.6619692E-1,-1.4078221E0,2.3113586E1,3.448857E-1,-6.407212E-1,-2.400362E0,1.3175231E0,-1.7137102E0,-2.910327E-1,1.5919638E0,-1.4652613E0,-1.5479991E-2,-4.609879E-1,4.8588676E0,-1.0568466E0,1.8439318E0,-7.7681416E-1,5.010877E-1,3.9880052E0,-8.021685E-1,-3.1469254E0,1.6185752E0,-3.7897658E0,-6.185785E-1,-1.2154237E0,-1.8018818E-2,3.4496531E0,3.7628216E-1,-1.2811245E-1,1.9911249E0,2.7187273E-1,-6.915679E-1,5.9492254E-1,3.584764E0,-9.82732E-1,2.5221407E-1],"split_indices":[1,1,3,3,1,1,0,3,3,2,3,3,3,0,1,3,2,0,1,0,0,1,0,1,2,3,1,0,0,0,3,0,2,1,1,0,0,2,1,0,0,0,3,0,3,2,3,0,1,1,3,0,0,0,0,0,0,0,0,0,0,0,0,0,0,0,0,0,0,0,0,0,0,0,0,0,0,0,0,0,0,0,0,0,0,0,0,0,0,0,0,0,0,0,0,0,0],"split_type":[0,0,0,0,0,0,0,0,0,0,0,0,0,0,0,0,0,0,0,0,0,0,0,0,0,0,0,0,0,0,0,0,0,0,0,0,0,0,0,0,0,0,0,0,0,0,0,0,0,0,0,0,0,0,0,0,0,0,0,0,0,0,0,0,0,0,0,0,0,0,0,0,0,0,0,0,0,0,0,0,0,0,0,0,0,0,0,0,0,0,0,0,0,0,0,0,0],"sum_hessian":[3.05E3,2.195E3,8.55E2,1.977E3,2.18E2,8.26E2,2.9E1,1.816E3,1.61E2,4E0,2.14E2,3.6E1,7.9E2,5E0,2.4E1,1.728E3,8.8E1,2.7E1,1.34E2,2E0,2E0,2.6E1,1.88E2,1.2E1,2.4E1,7.82E2,8E0,2E0,3E0,3E0,2.1E1,1.695E3,3.3E1,7.3E1,1.5E1,1.7E1,1E1,6.2E1,7.2E1,1E0,1E0,9E0,1.7E1,3E0,1.85E2,6E0,6E0,1.7E1,7E0,3.4E1,7.48E2,6E0,2E0,1E0,1E0,4E0,1.7E1,1.025E3,6.7E2,2.7E1,6E0,5.5E1,1.8E1,2E0,1.3E1,4E0,1.3E1,4E0,6E0,4.4E1,1.8E1,3.6E1,3.6E1,2E0,7E0,1E1,7E0,5.1E1,1.34E2,2E0,4E0,5E0,1E0,1.4E1,3E0,2E0,5E0,5E0,2.9E1,7.43E2,5E0,1E0,1E0,1E0,3E0,9E0,8E0],"tree_param":{"num_deleted":"0","num_feature":"4","num_nodes":"97","size_leaf_vector":"1"}},{"base_weights":[2.8178511E-2,5.3538984E-1,-6.860437E-2,1.2454855E-1,5.55095E0,-1.1501429E0,4.7754895E-2,-1.608084E-1,2.99596E0,1.1194428E1,1.1942862E0,-1.1596274E1,-9.322621E-1,2.8759892E0,6.8527986E-3,2.5903955E-1,-2.6352313E0,5.628474E0,-1.4691234E0,1.7298063E1,-1.8613085E0,-5.9066133E0,4.9018135E0,-3.8821423E0,-9.329218E-1,-3.4201183E0,-1.4868937E-2,-3.885943E0,5.984914E0,-6.952924E0,4.053106E-2,8.651616E-1,-2.4491825E0,-4.073797E0,-1.4389452E-1,2.694808E0,9.383946E0,-7.4933257E0,2.8947308E0,2.239455E1,2.7805767E0,2.243755E0,-2.520405E0,-9.493802E-1,-2.2202384E0,-1.2401292E0,1.0431029E1,1.0394553E0,-5.38166E0,9.483617E0,-6.293894E-1,-5.7924128E0,2.2768135E0,1.3017514E1,-1.5464296E0,-1.0647554E1,4.499008E0,2.5566928E0,5.7376823E-3,1.7558777E-1,3.1972148E0,-2.5638764E0,-3.1467673E-1,-1.6314414E0,5.1667345E-1,4.1353908E-1,-1.770023E0,1.4104353E0,-2.2703385E0,5.607272E0,1.9752479E0,-2.5801148E0,-1.276474E-1,1.0857477E0,-5.4376835E-1,2.8353865E0,9.892496E0,1.8163273E0,-1.056145E0,-1.1281878E0,7.0096666E-1,-2.18595E0,1.1534979E0,4.490979E0,6.4489365E-1,-8.9173925E-1,1.724944E0,-3.183184E0,-1.3455563E0,-8.775006E-1,3.7698264E0,-3.2716706E0,-1.6381629E-2,-3.1958745E0,-2.3297788E-1,4.824279E0,-4.5991135E-1,-2.3847072E0,1.248728E0,-8.900527E-1,-4.0546365E0,4.7756013E-2,5.6100187E0,-3.2141212E-1,2.9390823E-2],"categories":[],"categories_nodes":[],"categories_segments":[],"categories_sizes":[],"default_left":[0,0,0,0,0,0,0,0,0,0,0,0,0,0,0,0,0,0,0,0,0,0,0,0,0,0,0,0,0,0,0,0,0,0,0,0,0,0,0,0,0,0,0,0,0,0,0,0,0,0,0,0,0,0,0,0,0,0,0,0,0,0,0,0,0,0,0,0,0,0,0,0,0,0,0,0,0,0,0,0,0,0,0,0,0,0,0,0,0,0,0,0,0,0,0,0,0,0,0,0,0,0,0,0,0],"id":17,"left_children":[1,3,5,7,9,11,13,15,17,19,21,23,25,27,29,31,33,35,37,39,41,43,45,-1,-1,47,49,51,53,55,57,59,61,63,65,67,69,71,73,75,77,-1,-1,79,-1,81,83,85,87,89,91,93,-1,95,97,99,-1,101,103,-1,-1,-1,-1,-1,-1,-1,-1,-1,-1,-1,-1,-1,-1,-1,-1,-1,-1,-1,-1,-1,-1,-1,-1,-1,-1,-1,-1,-1,-1,-1,-1,-1,-1,-1,-1,-1,-1,-1,-1,-1,-1,-1,-1,-1,-1],"loss_changes":[1.4980843E2,1.00694165E3,3.2260083E2,3.7165964E2,8.9633997E2,5.559162E2,2.6778116E2,4.2974063E2,4.9019922E2,1.3071964E3,6.081422E2,1.6796448E1,5.5912305E2,7.1699414E2,5.354014E2,5.832146E2,2.1445102E2,2.61162E2,4.42311E2,7.516001E2,4.2935846E2,5.222986E1,5.2233777E2,0E0,0E0,5.829383E2,1.0566313E3,2.8461172E2,1.2383241E3,1.0517312E3,1.9897687E2,7.8851855E2,5.459721E2,3.0986108E2,2.0968135E2,3.6507367E2,1.635686E2,5.111209E1,4.066089E1,7.83907E2,1.0382934E2,0E0,0E0,3.649963E1,0E0,2.7398883E2,2.6852698E2,4.1394022E2,1.6803943E2,4.57497E2,1.00352356E3,2.3552109E2,0E0,5.595449E2,4.7170508E2,1.8017688E2,0E0,1.1968418E3,2.2293321E2,0E0,0E0,0E0,0E0,0E0,0E0,0E0,0E0,0E0,0E0,0E0,0E0,0E0,0E0,0E0,0E0,0E0,0E0,0E0,0E0,0E0,0E0,0E0,0E0,0E0,0E0,0E0,0E0,0E0,0E0,0E0,0E0,0E0,0E0,0E0,0E0,0E0,0E0,0E0,0E0,0E0,0E0,0E0,0E0,0E0,0E0],"parents":[2147483647,0,0,1,1,2,2,3,3,4,4,5,5,6,6,7,7,8,8,9,9,10,10,11,11,12,12,13,13,14,14,15,15,16,16,17,17,18,18,19,19,20,20,21,21,22,22,25,25,26,26,27,27,28,28,29,29,30,30,31,31,32,32,33,33,34,34,35,35,36,36,37,37,38,38,39,39,40,40,43,43,45,45,46,46,47,47,48,48,49,49,50,50,51,51,53,53,54,54,55,55,57,57,58,58],"right_children":[2,4,6,8,10,12,14,16,18,20,22,24,26,28,30,32,34,36,38,40,42,44,46,-1,-1,48,50,52,54,56,58,60,62,64,66,68,70,72,74,76,78,-1,-1,80,-1,82,84,86,88,90,92,94,-1,96,98,100,-1,102,104,-1,-1,-1,-1,-1,-1,-1,-1,-1,-1,-1,-1,-1,-1,-1,-1,-1,-1,-1,-1,-1,-1,-1,-1,-1,-1,-1,-1,-1,-1,-1,-1,-1,-1,-1,-1,-1,-1,-1,-1,-1,-1,-1,-1,-1,-1],"split_conditions":[1.3854155E1,1.3627795E1,5.3376522E1,1.9611582E1,1.5166586E2,1.3910169E1,5.8209457E1,1.7005083E1,2.1913416E1,1E-1,8.850917E0,1E-1,6.938417E0,1.662249E1,5.949607E1,6E-1,1.8330086E1,1.834119E2,2.3119669E1,1.7803247E1,9.263416E0,2.907417E0,3E-1,-3.8821423E0,-9.329218E-1,2.5740833E0,7.549083E0,1.7694666E1,1.9995398E1,1.12490835E1,6.338111E1,5E-1,1.2481604E2,6E-1,1.3276144E1,1.5166586E2,1.8436714E2,1.1988594E1,1.3869421E2,5.530333E0,1.9786585E1,2.243755E0,-2.520405E0,1.8259164E0,-2.2202384E0,2.9809903E2,7E-1,2.0172853E1,1.7227419E1,1.7377226E1,8.10925E0,